0,nan
3600,nan
7200,nan
10800,nan
14400,nan
18000,nan
21600,nan
25200,nan
28800,nan
32400,nan
36000,nan
39600,nan
43200,nan
46800,nan
50400,nan
54000,nan
57600,nan
61200,nan
64800,nan
68400,nan
72000,nan
75600,nan
79200,nan
82800,nan
86400,nan
90000,nan
93600,nan
97200,nan
100800,nan
104400,nan
108000,nan
111600,nan
115200,nan
118800,nan
122400,nan
126000,nan
129600,nan
133200,nan
136800,nan
140400,nan
144000,nan
147600,nan
151200,nan
154800,nan
158400,nan
162000,nan
165600,nan
169200,nan
172800,nan
176400,nan
180000,nan
183600,nan
187200,nan
190800,nan
194400,nan
198000,nan
201600,nan
205200,nan
208800,nan
212400,nan
216000,nan
219600,nan
223200,nan
226800,nan
230400,nan
234000,nan
237600,nan
241200,nan
244800,nan
248400,nan
252000,nan
255600,nan
259200,nan
262800,nan
266400,nan
270000,nan
273600,nan
277200,nan
280800,nan
284400,nan
288000,nan
291600,nan
295200,nan
298800,nan
302400,nan
306000,nan
309600,nan
313200,nan
316800,nan
320400,nan
324000,nan
327600,nan
331200,nan
334800,nan
338400,nan
342000,nan
345600,nan
349200,nan
352800,nan
356400,nan
360000,nan
363600,-2.1778463192084114
367200,-2.1778463192084114
370800,-2.1778463192084114
374400,-2.1778463192084114
378000,-2.1778463192084114
381600,-2.1778463192084114
385200,-2.1778463192084114
388800,-2.1778463192084114
392400,-2.1778463192084114
396000,-2.1778463192084114
399600,-2.1778463192084114
403200,-2.1778463192084114
406800,-2.1778463192084114
410400,-2.1778463192084114
414000,-2.1778463192084114
417600,-2.1778463192084114
421200,-2.1778463192084114
424800,-2.1778463192084114
428400,-2.1778463192084114
432000,-2.1778463192084114
435600,-2.1778463192084114
439200,-2.1778463192084114
442800,-2.1778463192084114
446400,-2.1778463192084114
450000,-2.1778463192084114
453600,-2.1778463192084114
457200,-2.1778463192084114
460800,-2.1778463192084114
464400,-2.1778463192084114
468000,-2.1778463192084114
471600,-2.1778463192084114
475200,-2.1778463192084114
478800,-2.1778463192084114
482400,-2.1778463192084114
486000,-2.1778463192084114
489600,-2.1778463192084114
493200,-2.1778463192084114
496800,-2.1778463192084114
500400,-2.1778463192084114
504000,-2.1778463192084114
507600,-2.1778463192084114
511200,-2.1778463192084114
514800,-2.1778463192084114
518400,-2.1778463192084114
522000,-2.1778463192084114
525600,-2.1778463192084114
529200,-2.1778463192084114
532800,-2.1778463192084114
536400,-2.1778463192084114
540000,-2.1778463192084114
543600,-2.1817022227410057
547200,-2.1855581262735995
550800,-2.1894140298061937
554400,-2.1932699333387875
558000,-2.1971258368713817
561600,-2.2009817404039755
565200,-2.20483764393657
568800,-2.208693547469164
572400,-2.212549451001758
576000,-2.216405354534352
579600,-2.220261258066946
583200,-2.22411716159954
586800,-2.227973065132134
590400,-2.231828968664728
594000,-2.2356848721973224
597600,-2.239540775729916
601200,-2.2433966792625104
604800,-2.247252582795104
608400,-2.2511084863276984
612000,-2.2549643898602922
615600,-2.2588202933928865
619200,-2.2626761969254807
622800,-2.2665321004580745
626400,-2.2703880039906688
630000,-2.2742439075232626
633600,-2.278099811055857
637200,-2.2819557145884506
640800,-2.285811618121045
644400,-2.289667521653639
648000,-2.293523425186233
651600,-2.297379328718827
655200,-2.301235232251421
658800,-2.305091135784015
662400,-2.308947039316609
666000,-2.312802942849203
669600,-2.3166588463817974
673200,-2.320514749914391
676800,-2.3243706534469855
680400,-2.3282265569795793
684000,-2.3320824605121735
687600,-2.3359383640447673
691200,-2.3397942675773615
694800,-2.3436501711099558
698400,-2.3475060746425496
702000,-2.351361978175144
705600,-2.3552178817077376
709200,-2.359073785240332
712800,-2.3629296887729256
716400,-2.36678559230552
720000,-2.3339265882886315
723600,-2.3010675842717436
727200,-2.2682085802548553
730800,-2.2353495762379674
734400,-2.202490572221079
738000,-2.169631568204191
741600,-2.1367725641873028
745200,-2.1039135601704144
748800,-2.0710545561535265
752400,-2.038195552136638
756000,-2.0053365481197503
759600,-1.972477544102862
763200,-1.939618540085974
766800,-1.9067595360690857
770400,-1.8739005320521975
774000,-1.8410415280353094
777600,-1.8081825240184213
781200,-1.7753235200015332
784800,-1.7424645159846448
788400,-1.709605511967757
792000,-1.6767465079508685
795600,-1.6438875039339804
799200,-1.6110284999170923
802800,-1.6223648563029187
806400,-1.6337012126887451
810000,-1.6450375690745715
813600,-1.6563739254603977
817200,-1.6677102818462242
820800,-1.6790466382320506
824400,-1.690382994617877
828000,-1.7017193510037034
831600,-1.7130557073895298
835200,-1.724392063775356
838800,-1.7357284201611825
842400,-1.7470647765470089
846000,-1.7584011329328353
849600,-1.7697374893186617
853200,-1.7810738457044881
856800,-1.7924102020903145
860400,-1.8037465584761407
864000,-1.8150829148619672
867600,-1.8264192712477936
871200,-1.83775562763362
874800,-1.8490919840194464
878400,-1.8604283404052726
882000,-1.8717646967910992
885600,-1.8831010531769254
889200,-1.8944374095627519
892800,-1.9057737659485783
896400,-1.9171101223344047
900000,-1.9284464787202311
903600,-1.9397828351060573
907200,-1.9511191914918837
910800,-1.9624555478777101
914400,-1.9737919042635366
918000,-1.985128260649363
921600,-1.9964646170351894
925200,-2.007800973421016
928800,-2.019137329806842
932400,-2.0304736861926687
936000,-2.041810042578495
939600,-2.053146398964321
943200,-2.0644827553501477
946800,-2.075819111735974
950400,-2.0871554681218005
954000,-2.0984918245076267
957600,-2.1098281808934534
961200,-2.1211645372792796
964800,-2.1325008936651058
968400,-2.1438372500509324
972000,-2.1551736064367586
975600,-2.1665099628225852
979200,-2.1778463192084114
982800,-2.150121534569162
986400,-2.122396749929913
990000,-2.0946719652906642
993600,-2.066947180651415
997200,-2.039222396012166
1000800,-2.0114976113729166
1004400,-1.9837728267336676
1008000,-1.9560480420944184
1011600,-1.9283232574551694
1015200,-1.9005984728159202
1018800,-1.872873688176671
1022400,-1.845148903537422
1026000,-1.8174241188981728
1029600,-1.7896993342589238
1033200,-1.7619745496196746
1036800,-1.7342497649804254
1040400,-1.7065249803411764
1044000,-1.6788001957019272
1047600,-1.6510754110626782
1051200,-1.623350626423429
1054800,-1.5956258417841798
1058400,-1.5679010571449306
1062000,-1.5401762725056816
1065600,-1.5429013581753512
1069200,-1.545626443845021
1072800,-1.5483515295146906
1076400,-1.55107661518436
1080000,-1.5538017008540297
1083600,-1.5565267865236994
1087200,-1.559251872193369
1090800,-1.5619769578630387
1094400,-1.5647020435327084
1098000,-1.5674271292023778
1101600,-1.5701522148720475
1105200,-1.5728773005417171
1108800,-1.5756023862113868
1112400,-1.5783274718810565
1116000,-1.5810525575507262
1119600,-1.5837776432203958
1123200,-1.5865027288900653
1126800,-1.589227814559735
1130400,-1.5919529002294046
1134000,-1.5946779858990743
1137600,-1.597403071568744
1141200,-1.6001281572384136
1144800,-1.602853242908083
1148400,-1.6055783285777527
1152000,-1.6083034142474224
1155600,-1.611028499917092
1159200,-1.5933154430642387
1162800,-1.575602386211385
1166400,-1.5578893293585316
1170000,-1.540176272505678
1173600,-1.5224632156528246
1177200,-1.504750158799971
1180800,-1.4870371019471176
1184400,-1.469324045094264
1188000,-1.4516109882414105
1191600,-1.433897931388557
1195200,-1.4161848745357035
1198800,-1.3984718176828501
1202400,-1.3807587608299965
1206000,-1.363045703977143
1209600,-1.3453326471242895
1213200,-1.327619590271436
1216800,-1.3099065334185824
1220400,-1.292193476565729
1224000,-1.2744804197128756
1227600,-1.256767362860022
1231200,-1.2653845256533023
1234800,-1.2740016884465823
1238400,-1.2826188512398624
1242000,-1.2912360140331427
1245600,-1.299853176826423
1249200,-1.308470339619703
1252800,-1.3170875024129831
1256400,-1.3257046652062634
1260000,-1.3343218279995437
1263600,-1.3429389907928238
1267200,-1.3515561535861038
1270800,-1.360173316379384
1274400,-1.3687904791726644
1278000,-1.3774076419659445
1281600,-1.3860248047592245
1285200,-1.3946419675525048
1288800,-1.403259130345785
1292400,-1.4118762931390652
1296000,-1.4204934559323452
1299600,-1.4291106187256255
1303200,-1.4377277815189058
1306800,-1.4463449443121859
1310400,-1.454962107105466
1314000,-1.4635792698987462
1317600,-1.4721964326920265
1321200,-1.4808135954853066
1324800,-1.4894307582785866
1328400,-1.498047921071867
1332000,-1.5066650838651472
1335600,-1.5152822466584273
1339200,-1.5238994094517073
1342800,-1.5325165722449876
1346400,-1.541133735038268
1350000,-1.549750897831548
1353600,-1.558368060624828
1357200,-1.5669852234181083
1360800,-1.5756023862113886
1364400,-1.5842195490046687
1368000,-1.5928367117979487
1371600,-1.601453874591229
1375200,-1.6100710373845093
1378800,-1.6186882001777894
1382400,-1.6273053629710694
1386000,-1.6359225257643497
1389600,-1.64453968855763
1393200,-1.65315685135091
1396800,-1.6617740141441901
1400400,-1.6703911769374704
1404000,-1.6790083397307507
1407600,-1.6876255025240308
1411200,-1.6962426653173108
1414800,-1.7048598281105911
1418400,-1.7134769909038714
1422000,-1.7220941536971515
1425600,-1.7307113164904315
1429200,-1.7393284792837118
1432800,-1.747945642076992
1436400,-1.7565628048702722
1440000,-1.7651799676635522
1443600,-1.7737971304568325
1447200,-1.7824142932501128
1450800,-1.7910314560433929
1454400,-1.799648618836673
1458000,-1.8082657816299532
1461600,-1.8168829444232335
1465200,-1.8255001072165136
1468800,-1.8341172700097936
1472400,-1.842734432803074
1476000,-1.8513515955963542
1479600,-1.8599687583896343
1483200,-1.8685859211829143
1486800,-1.8772030839761946
1490400,-1.885820246769475
1494000,-1.894437409562755
1497600,-1.898293313095349
1501200,-1.9021492166279428
1504800,-1.9060051201605368
1508400,-1.9098610236931306
1512000,-1.9137169272257246
1515600,-1.9175728307583184
1519200,-1.9214287342909124
1522800,-1.9252846378235062
1526400,-1.9291405413561002
1530000,-1.932996444888694
1533600,-1.936852348421288
1537200,-1.940708251953882
1540800,-1.9445641554864759
1544400,-1.94842005901907
1548000,-1.9522759625516637
1551600,-1.9561318660842577
1555200,-1.9599877696168515
1558800,-1.9638436731494455
1562400,-1.9676995766820393
1566000,-1.9715554802146333
1569600,-1.9754113837472274
1573200,-1.9792672872798212
1576800,-1.9831231908124152
1580400,-1.986979094345009
1584000,-1.990834997877603
1587600,-1.9946909014101968
1591200,-1.9985468049427908
1594800,-2.0024027084753846
1598400,-2.0062586120079784
1602000,-2.0101145155405726
1605600,-2.0139704190731664
1609200,-2.0178263226057602
1612800,-2.0216822261383545
1616400,-2.0255381296709483
1620000,-2.029394033203542
1623600,-2.033249936736136
1627200,-2.03710584026873
1630800,-2.040961743801324
1634400,-2.0448176473339177
1638000,-2.0486735508665115
1641600,-2.0525294543991057
1645200,-2.0563853579316995
1648800,-2.0602412614642933
1652400,-2.0640971649968876
1656000,-2.0679530685294814
1659600,-2.071808972062075
1663200,-2.075664875594669
1666800,-2.079520779127263
1670400,-2.083376682659857
1674000,-2.0828741845931096
1677600,-2.0823716865263617
1681200,-2.0818691884596143
1684800,-2.0813666903928665
1688400,-2.080864192326119
1692000,-2.0803616942593712
1695600,-2.079859196192624
1699200,-2.0793566981258764
1702800,-2.0788542000591286
1706400,-2.078351701992381
1710000,-2.0778492039256333
1713600,-2.077346705858886
1717200,-2.076844207792138
1720800,-2.0763417097253907
1724400,-2.0758392116586433
1728000,-2.0753367135918954
1731600,-2.074834215525148
1735200,-2.0743317174584
1738800,-2.0738292193916528
1742400,-2.073326721324905
1746000,-2.0728242232581575
1749600,-2.07232172519141
1753200,-2.0718192271246623
1756800,-2.071316729057915
1760400,-2.070814230991167
1764000,-2.0703117329244196
1767600,-2.069809234857672
1771200,-2.0693067367909244
1774800,-2.068804238724177
1778400,-2.068301740657429
1782000,-2.0677992425906817
1785600,-2.067296744523934
1789200,-2.0667942464571865
1792800,-2.066291748390439
1796400,-2.065789250323691
1800000,-2.065286752256944
1803600,-2.064784254190196
1807200,-2.0642817561234486
1810800,-2.0637792580567007
1814400,-2.0632767599899533
1818000,-2.062774261923206
1821600,-2.062271763856458
1825200,-2.0617692657897106
1828800,-2.061266767722963
1832400,-2.0607642696562154
1836000,-2.0602617715894675
1839600,-2.05975927352272
1843200,-2.0592567754559727
1846800,-2.058754277389225
1850400,-2.0582517793224775
1854000,-2.0577492812557296
1857600,-2.0572467831889822
1861200,-2.0567442851222344
1864800,-2.056241787055487
1868400,-2.0557392889887396
1872000,-2.0552367909219917
1875600,-2.0547342928552443
1879200,-2.0542317947884965
1882800,-2.053729296721749
1886400,-2.0532267986550012
1890000,-2.052724300588254
1893600,-2.0522218025215064
1897200,-2.0517193044547586
1900800,-2.051216806388011
1904400,-2.0507143083212633
1908000,-2.050211810254516
1911600,-2.049709312187768
1915200,-2.0492068141210207
1918800,-2.0487043160542733
1922400,-2.0482018179875254
1926000,-2.047699319920778
1929600,-2.04719682185403
1933200,-2.0466943237872828
1936800,-2.0461918257205354
1940400,-2.0456893276537875
1944000,-2.04518682958704
1947600,-2.0446843315202923
1951200,-2.044181833453545
1954800,-2.043679335386797
1958400,-2.0431768373200496
1962000,-2.042674339253302
1965600,-2.0421718411865544
1969200,-2.041669343119807
1972800,-2.041166845053059
1976400,-2.0406643469863117
1980000,-2.040161848919564
1983600,-2.0396593508528165
1987200,-2.039156852786069
1990800,-2.038654354719321
1994400,-2.038151856652574
1998000,-2.037649358585826
2001600,-2.0371468605190786
2005200,-2.0366443624523307
2008800,-2.0361418643855833
2012400,-2.0349707531887002
2016000,-2.0337996419918176
2019600,-2.0326285307949346
2023200,-2.031457419598052
2026800,-2.030286308401169
2030400,-2.0291151972042862
2034000,-2.027944086007403
2037600,-2.02677297481052
2041200,-2.0256018636136375
2044800,-2.0244307524167544
2048400,-2.023259641219872
2052000,-2.0220885300229887
2055600,-2.020917418826106
2059200,-2.019746307629223
2062800,-2.01857519643234
2066400,-2.0174040852354573
2070000,-2.0162329740385743
2073600,-2.0150618628416916
2077200,-2.0138907516448086
2080800,-2.012719640447926
2084400,-2.011548529251043
2088000,-2.01037741805416
2091600,-2.009206306857277
2095200,-2.008035195660394
2098800,-2.0068640844635115
2102400,-2.0056929732666284
2106000,-2.004521862069746
2109600,-2.0033507508728627
2113200,-2.0021796396759797
2116800,-2.001008528479097
2120400,-1.999837417282214
2124000,-1.9986663060853311
2127600,-1.9974951948884483
2131200,-1.9963240836915654
2134800,-1.9951529724946826
2138400,-1.9939818612977998
2142000,-1.992810750100917
2145600,-1.9916396389040338
2149200,-1.990468527707151
2152800,-1.9892974165102681
2156400,-1.9881263053133853
2160000,-1.9869551941165025
2163600,-1.9857840829196196
2167200,-1.9846129717227365
2170800,-1.9834418605258537
2174400,-1.9822707493289708
2178000,-1.981099638132088
2181600,-1.9799285269352052
2185200,-1.9787574157383223
2188800,-1.9775863045414395
2192400,-1.9764151933445564
2196000,-1.9752440821476736
2199600,-1.9740729709507907
2203200,-1.9729018597539079
2206800,-1.971730748557025
2210400,-1.9705596373601422
2214000,-1.9693885261632593
2217600,-1.9682174149663763
2221200,-1.9670463037694934
2224800,-1.9658751925726106
2228400,-1.9647040813757277
2232000,-1.9635329701788449
2235600,-1.962361858981962
2239200,-1.961190747785079
2242800,-1.9600196365881961
2246400,-1.9588485253913133
2250000,-1.9576774141944304
2253600,-1.9565063029975476
2257200,-1.9553351918006647
2260800,-1.9541640806037819
2264400,-1.9529929694068988
2268000,-1.951821858210016
2271600,-1.9506507470131331
2275200,-1.9494796358162503
2278800,-1.9483085246193674
2282400,-1.9471374134224846
2286000,-1.9459663022256017
2289600,-1.9447951910287187
2293200,-1.9436240798318358
2296800,-1.942452968634953
2300400,-1.9412818574380701
2304000,-1.9401107462411873
2307600,-1.9389396350443044
2311200,-1.9377685238474216
2314800,-1.9365974126505385
2318400,-1.9354263014536557
2322000,-1.9342551902567728
2325600,-1.93308407905989
2329200,-1.9319129678630071
2332800,-1.9307418566661243
2336400,-1.9295707454692415
2340000,-1.9283996342723584
2343600,-1.9272285230754755
2347200,-1.9260574118785927
2350800,-1.9248863006817098
2354400,-1.923715189484827
2358000,-1.9225440782879442
2361600,-1.921372967091061
2365200,-1.9202018558941782
2368800,-1.9190307446972954
2372400,-1.9178596335004126
2376000,-1.9166885223035297
2379600,-1.9155174111066469
2383200,-1.914346299909764
2386800,-1.913175188712881
2390400,-1.912004077515998
2394000,-1.9108329663191153
2397600,-1.9096618551222324
2401200,-1.9084907439253496
2404800,-1.9073196327284667
2408400,-1.9061485215315837
2412000,-1.9049774103347008
2415600,-1.903806299137818
2419200,-1.9026351879409351
2422800,-1.9014640767440523
2426400,-1.9002929655471694
2430000,-1.8991218543502866
2433600,-1.8979507431534035
2437200,-1.8967796319565207
2440800,-1.8956085207596378
2444400,-1.894437409562755
2448000,-1.8868999385615406
2451600,-1.8793624675603262
2455200,-1.8718249965591118
2458800,-1.8642875255578975
2462400,-1.856750054556683
2466000,-1.8492125835554685
2469600,-1.841675112554254
2473200,-1.8341376415530397
2476800,-1.8266001705518253
2480400,-1.819062699550611
2484000,-1.8115252285493966
2487600,-1.8039877575481822
2491200,-1.7964502865469678
2494800,-1.7889128155457534
2498400,-1.781375344544539
2502000,-1.7738378735433247
2505600,-1.76630040254211
2509200,-1.758762931540896
2512800,-1.7512254605396813
2516400,-1.743687989538467
2520000,-1.7361505185372526
2523600,-1.7286130475360382
2527200,-1.7210755765348238
2530800,-1.7135381055336094
2534400,-1.706000634532395
2538000,-1.6984631635311807
2541600,-1.6909256925299663
2545200,-1.683388221528752
2548800,-1.6758507505275375
2552400,-1.668313279526323
2556000,-1.6607758085251085
2559600,-1.6532383375238942
2563200,-1.6457008665226798
2566800,-1.6381633955214654
2570400,-1.630625924520251
2574000,-1.6230884535190366
2577600,-1.6155509825178223
2581200,-1.6080135115166079
2584800,-1.6004760405153935
2588400,-1.5929385695141791
2592000,-1.5854010985129645
2595600,-1.5778636275117504
2599200,-1.5703261565105358
2602800,-1.5627886855093214
2606400,-1.555251214508107
2610000,-1.5477137435068926
2613600,-1.5401762725056782
2617200,-1.5398436329403664
2620800,-1.5395109933750548
2624400,-1.539178353809743
2628000,-1.5388457142444312
2631600,-1.5385130746791196
2635200,-1.5381804351138078
2638800,-1.537847795548496
2642400,-1.5375151559831843
2646000,-1.5371825164178725
2649600,-1.536849876852561
2653200,-1.536517237287249
2656800,-1.5361845977219373
2660400,-1.5358519581566257
2664000,-1.5355193185913139
2667600,-1.535186679026002
2671200,-1.5348540394606904
2674800,-1.5345213998953786
2678400,-1.5341887603300668
2682000,-1.5338561207647552
2685600,-1.5335234811994434
2689200,-1.5331908416341316
2692800,-1.53285820206882
2696400,-1.5325255625035081
2700000,-1.5321929229381963
2703600,-1.5318602833728847
2707200,-1.531527643807573
2710800,-1.5311950042422613
2714400,-1.5308623646769495
2718000,-1.5305297251116377
2721600,-1.530197085546326
2725200,-1.5298644459810142
2728800,-1.5295318064157024
2732400,-1.5291991668503908
2736000,-1.528866527285079
2739600,-1.5285338877197672
2743200,-1.5282012481544556
2746800,-1.5278686085891438
2750400,-1.527535969023832
2754000,-1.5272033294585203
2757600,-1.5268706898932085
2761200,-1.5265380503278967
2764800,-1.526205410762585
2768400,-1.5258727711972733
2772000,-1.5255401316319614
2775600,-1.5252074920666499
2779200,-1.524874852501338
2782800,-1.5245422129360264
2786400,-1.5242095733707146
2790000,-1.5238769338054028
2793600,-1.5235442942400912
2797200,-1.5232116546747794
2800800,-1.5228790151094675
2804400,-1.522546375544156
2808000,-1.5222137359788441
2811600,-1.5218810964135323
2815200,-1.5215484568482207
2818800,-1.5212158172829089
2822400,-1.520883177717597
2826000,-1.5205505381522855
2829600,-1.5202178985869736
2833200,-1.5198852590216618
2836800,-1.5195526194563502
2840400,-1.5192199798910384
2844000,-1.5188873403257268
2847600,-1.518554700760415
2851200,-1.5182220611951032
2854800,-1.5178894216297916
2858400,-1.5175567820644797
2862000,-1.517224142499168
2865600,-1.5168915029338563
2869200,-1.5165588633685445
2872800,-1.5228568391384478
2876400,-1.5291548149083514
2880000,-1.5354527906782547
2883600,-1.541750766448158
2887200,-1.5480487422180615
2890800,-1.5543467179879649
2894400,-1.5606446937578682
2898000,-1.5669426695277717
2901600,-1.573240645297675
2905200,-1.5795386210675784
2908800,-1.585836596837482
2912400,-1.5921345726073852
2916000,-1.5984325483772885
2919600,-1.604730524147192
2923200,-1.6110284999170954
2926800,-1.6173264756869987
2930400,-1.6236244514569023
2934000,-1.6299224272268056
2937600,-1.636220402996709
2941200,-1.6425183787666124
2944800,-1.6488163545365158
2948400,-1.655114330306419
2952000,-1.6614123060763226
2955600,-1.667710281846226
2959200,-1.6740082576161293
2962800,-1.6803062333860328
2966400,-1.6866042091559361
2970000,-1.6929021849258394
2973600,-1.699200160695743
2977200,-1.7054981364656463
2980800,-1.6905818780632433
2984400,-1.6756656196608404
2988000,-1.6607493612584374
2991600,-1.6458331028560345
2995200,-1.6309168444536315
2998800,-1.6160005860512288
3002400,-1.6010843276488258
3006000,-1.5861680692464228
3009600,-1.5712518108440199
3013200,-1.556335552441617
3016800,-1.541419294039214
3020400,-1.526503035636811
3024000,-1.511586777234408
3027600,-1.496670518832005
3031200,-1.4817542604296023
3034800,-1.4668380020271994
3038400,-1.4519217436247964
3042000,-1.4370054852223935
3045600,-1.4220892268199905
3049200,-1.4260809016037321
3052800,-1.4300725763874738
3056400,-1.4340642511712154
3060000,-1.438055925954957
3063600,-1.4420476007386986
3067200,-1.4460392755224403
3070800,-1.450030950306182
3074400,-1.4540226250899235
3078000,-1.4580142998736652
3081600,-1.4620059746574068
3085200,-1.4659976494411484
3088800,-1.46998932422489
3092400,-1.4739809990086317
3096000,-1.4779726737923733
3099600,-1.481964348576115
3103200,-1.4859560233598565
3106800,-1.4899476981435982
3110400,-1.4939393729273398
3114000,-1.4979310477110814
3117600,-1.501922722494823
3121200,-1.5059143972785647
3124800,-1.5099060720623063
3128400,-1.513897746846048
3132000,-1.5178894216297896
3135600,-1.5218810964135312
3139200,-1.5258727711972728
3142800,-1.5298644459810145
3146400,-1.533856120764756
3150000,-1.5378477955484977
3153600,-1.5418394703322393
3157200,-1.5458311451159812
3160800,-1.5498228198997226
3164400,-1.5538144946834644
3168000,-1.5578061694672058
3171600,-1.5617978442509477
3175200,-1.565789519034689
3178800,-1.569781193818431
3182400,-1.5737728686021726
3186000,-1.5777645433859142
3189600,-1.5817562181696558
3193200,-1.5857478929533975
3196800,-1.589739567737139
3200400,-1.5937312425208807
3204000,-1.5977229173046223
3207600,-1.601714592088364
3211200,-1.6057062668721056
3214800,-1.6096979416558472
3218400,-1.6136896164395889
3222000,-1.6176812912233305
3225600,-1.6216729660070721
3229200,-1.6256646407908137
3232800,-1.6296563155745554
3236400,-1.633647990358297
3240000,-1.6376396651420386
3243600,-1.6416313399257803
3247200,-1.6456230147095219
3250800,-1.6496146894932635
3254400,-1.6536063642770051
3258000,-1.6575980390607468
3261600,-1.6615897138444884
3265200,-1.66558138862823
3268800,-1.6695730634119716
3272400,-1.6735647381957133
3276000,-1.677556412979455
3279600,-1.6815480877631965
3283200,-1.6855397625469382
3286800,-1.6895314373306798
3290400,-1.6935231121144214
3294000,-1.697514786898163
3297600,-1.7015064616819047
3301200,-1.7054981364656463
3304800,-1.6828254236939935
3308400,-1.6601527109223408
3312000,-1.637479998150688
3315600,-1.6148072853790352
3319200,-1.5921345726073826
3322800,-1.5694618598357297
3326400,-1.5467891470640769
3330000,-1.5241164342924243
3333600,-1.5014437215207714
3337200,-1.4787710087491188
3340800,-1.456098295977466
3344400,-1.4334255832058131
3348000,-1.4107528704341605
3351600,-1.3880801576625077
3355200,-1.365407444890855
3358800,-1.3427347321192022
3362400,-1.3200620193475494
3366000,-1.2973893065758966
3369600,-1.274716593804244
3373200,-1.2520438810325911
3376800,-1.2293711682609385
3380400,-1.2066984554892857
3384000,-1.1840257427176328
3387600,-1.16135302994598
3391200,-1.1386803171743274
3394800,-1.1382731204650665
3398400,-1.1378659237558053
3402000,-1.1374587270465444
3405600,-1.1370515303372835
3409200,-1.1366443336280223
3412800,-1.1362371369187614
3416400,-1.1358299402095005
3420000,-1.1354227435002393
3423600,-1.1350155467909784
3427200,-1.1346083500817175
3430800,-1.1342011533724563
3434400,-1.1337939566631954
3438000,-1.1333867599539345
3441600,-1.1329795632446733
3445200,-1.1325723665354124
3448800,-1.1321651698261515
3452400,-1.1317579731168903
3456000,-1.1313507764076294
3459600,-1.1309435796983685
3463200,-1.1305363829891073
3466800,-1.1301291862798464
3470400,-1.1297219895705854
3474000,-1.1293147928613243
3477600,-1.1289075961520634
3481200,-1.1285003994428024
3484800,-1.1280932027335413
3488400,-1.1276860060242804
3492000,-1.1272788093150194
3495600,-1.1268716126057583
3499200,-1.1264644158964974
3502800,-1.1260572191872362
3506400,-1.1256500224779753
3510000,-1.1252428257687144
3513600,-1.1248356290594532
3517200,-1.1244284323501923
3520800,-1.1240212356409314
3524400,-1.1236140389316702
3528000,-1.1232068422224093
3531600,-1.1227996455131484
3535200,-1.1223924488038872
3538800,-1.1219852520946263
3542400,-1.1215780553853654
3546000,-1.1211708586761042
3549600,-1.1207636619668433
3553200,-1.1203564652575824
3556800,-1.1199492685483212
3560400,-1.1195420718390603
3564000,-1.1191348751297994
3567600,-1.1187276784205382
3571200,-1.1183204817112773
3574800,-1.1179132850020164
3578400,-1.1175060882927552
3582000,-1.1170988915834943
3585600,-1.1166916948742334
3589200,-1.1162844981649722
3592800,-1.1158773014557113
3596400,-1.1154701047464504
3600000,-1.1150629080371892
3603600,-1.1146557113279283
3607200,-1.1142485146186674
3610800,-1.1138413179094062
3614400,-1.1134341212001453
3618000,-1.1130269244908844
3621600,-1.1126197277816232
3625200,-1.1122125310723623
3628800,-1.1118053343631014
3632400,-1.1113981376538402
3636000,-1.1109909409445793
3639600,-1.1105837442353184
3643200,-1.1101765475260572
3646800,-1.1097693508167963
3650400,-1.1093621541075354
3654000,-1.1089549573982742
3657600,-1.1085477606890133
3661200,-1.1081405639797524
3664800,-1.1077333672704912
3668400,-1.1073261705612303
3672000,-1.1069189738519694
3675600,-1.1065117771427082
3679200,-1.1061045804334473
3682800,-1.1056973837241864
3686400,-1.1052901870149252
3690000,-1.1048829903056643
3693600,-1.1044757935964034
3697200,-1.1040685968871422
3700800,-1.1036614001778813
3704400,-1.1032542034686204
3708000,-1.1028470067593592
3711600,-1.1024398100500983
3715200,-1.1020326133408371
3718800,-1.1016254166315762
3722400,-1.1012182199223153
3726000,-1.1008110232130544
3729600,-1.1004038265037932
3733200,-1.0999966297945323
3736800,-1.0995894330852711
3740400,-1.0991822363760102
3744000,-1.0987750396667493
3747600,-1.0983678429574881
3751200,-1.0979606462482272
3754800,-1.0975534495389663
3758400,-1.0971462528297051
3762000,-1.0967390561204442
3765600,-1.0963318594111833
3769200,-1.0959246627019221
3772800,-1.0955174659926612
3776400,-1.0951102692834003
3780000,-1.0947030725741391
3783600,-1.0942958758648782
3787200,-1.0938886791556173
3790800,-1.0934814824463561
3794400,-1.0930742857370952
3798000,-1.0926670890278343
3801600,-1.0922598923185731
3805200,-1.0918526956093122
3808800,-1.0914454989000513
3812400,-1.0910383021907901
3816000,-1.0906311054815292
3819600,-1.0902239087722683
3823200,-1.0898167120630071
3826800,-1.0894095153537462
3830400,-1.0890023186444853
3834000,-1.0885951219352241
3837600,-1.0881879252259632
3841200,-1.0877807285167023
3844800,-1.0873735318074411
3848400,-1.0869663350981802
3852000,-1.0865591383889193
3855600,-1.0861519416796581
3859200,-1.0857447449703972
3862800,-1.0853375482611363
3866400,-1.0849303515518751
3870000,-1.0845231548426142
3873600,-1.0841159581333533
3877200,-1.0837087614240921
3880800,-1.0833015647148312
3884400,-1.0828943680055703
3888000,-1.0824871712963091
3891600,-1.0820799745870482
3895200,-1.0816727778777873
3898800,-1.0812655811685261
3902400,-1.0808583844592652
3906000,-1.0804511877500043
3909600,-1.0800439910407431
3913200,-1.0796367943314822
3916800,-1.0792295976222213
3920400,-1.0788224009129601
3924000,-1.0784152042036992
3927600,-1.078008007494438
3931200,-1.077600810785177
3934800,-1.0771936140759162
3938400,-1.0767864173666553
3942000,-1.076379220657394
3945600,-1.0759720239481332
3949200,-1.075564827238872
3952800,-1.075157630529611
3956400,-1.0747504338203502
3960000,-1.074343237111089
3963600,-1.073936040401828
3967200,-1.0735288436925672
3970800,-1.073121646983306
3974400,-1.072714450274045
3978000,-1.0723072535647842
3981600,-1.071900056855523
3985200,-1.071492860146262
3988800,-1.0710856634370012
3992400,-1.07067846672774
3996000,-1.070271270018479
3999600,-1.0698640733092182
4003200,-1.069456876599957
4006800,-1.069049679890696
4010400,-1.0686424831814352
4014000,-1.068235286472174
4017600,-1.067828089762913
4021200,-1.0674208930536522
4024800,-1.067013696344391
4028400,-1.06660649963513
4032000,-1.0661993029258692
4035600,-1.065792106216608
4039200,-1.065384909507347
4042800,-1.0649777127980862
4046400,-1.064570516088825
4050000,-1.064163319379564
4053600,-1.0637561226703032
4057200,-1.063348925961042
4060800,-1.062941729251781
4064400,-1.0625345325425202
4068000,-1.062127335833259
4071600,-1.061720139123998
4075200,-1.0613129424147372
4078800,-1.060905745705476
4082400,-1.060498548996215
4086000,-1.0600913522869542
4089600,-1.059684155577693
4093200,-1.059276958868432
4096800,-1.0588697621591712
4100400,-1.05846256544991
4104000,-1.058055368740649
4107600,-1.0576481720313882
4111200,-1.057240975322127
4114800,-1.056833778612866
4118400,-1.0564265819036052
4122000,-1.056019385194344
4125600,-1.055612188485083
4129200,-1.0552049917758222
4132800,-1.054797795066561
4136400,-1.0543905983573
4140000,-1.053983401648039
4143600,-1.053576204938778
4147200,-1.053169008229517
4150800,-1.0527618115202562
4154400,-1.052354614810995
4158000,-1.051947418101734
4161600,-1.051540221392473
4165200,-1.051133024683212
4168800,-1.050725827973951
4172400,-1.05031863126469
4176000,-1.049911434555429
4179600,-1.049504237846168
4183200,-1.049097041136907
4186800,-1.048689844427646
4190400,-1.048282647718385
4194000,-1.047875451009124
4197600,-1.047468254299863
4201200,-1.047061057590602
4204800,-1.046653860881341
4208400,-1.04624666417208
4212000,-1.045839467462819
4215600,-1.045432270753558
4219200,-1.045025074044297
4222800,-1.044617877335036
4226400,-1.044210680625775
4230000,-1.043803483916514
4233600,-1.043396287207253
4237200,-1.042989090497992
4240800,-1.042581893788731
4244400,-1.04217469707947
4248000,-1.041767500370209
4251600,-1.041360303660948
4255200,-1.040953106951687
4258800,-1.040545910242426
4262400,-1.040138713533165
4266000,-1.039731516823904
4269600,-1.039324320114643
4273200,-1.038917123405382
4276800,-1.038509926696121
4280400,-1.03810272998686
4284000,-1.037695533277599
4287600,-1.037288336568338
4291200,-1.036881139859077
4294800,-1.036473943149816
4298400,-1.036066746440555
4302000,-1.035659549731294
4305600,-1.035252353022033
4309200,-1.034845156312772
4312800,-1.034437959603511
4316400,-1.03403076289425
4320000,-1.033623566184989
4323600,-1.033216369475728
4327200,-1.032809172766467
4330800,-1.032401976057206
4334400,-1.031994779347945
4338000,-1.031587582638684
4341600,-1.031180385929423
4345200,-1.030773189220162
4348800,-1.030365992510901
4352400,-1.0299587958016398
4356000,-1.029551599092379
4359600,-1.029144402383118
4363200,-1.028737205673857
4366800,-1.028330008964596
4370400,-1.027922812255335
4374000,-1.0275156155460738
4377600,-1.027108418836813
4381200,-1.026701222127552
4384800,-1.026294025418291
4388400,-1.02588682870903
4392000,-1.025479631999769
4395600,-1.0250724352905078
4399200,-1.024665238581247
4402800,-1.024258041871986
4406400,-1.0238508451627248
4410000,-1.023443648453464
4413600,-1.023036451744203
4417200,-1.0226292550349418
4420800,-1.022222058325681
4424400,-1.02181486161642
4428000,-1.0214076649071588
4431600,-1.021000468197898
4435200,-1.020593271488637
4438800,-1.0201860747793758
4442400,-1.019778878070115
4446000,-1.019371681360854
4449600,-1.0189644846515928
4453200,-1.018557287942332
4456800,-1.018150091233071
4460400,-1.0177428945238098
4464000,-1.017335697814549
4467600,-1.016928501105288
4471200,-1.0165213043960268
4474800,-1.016114107686766
4478400,-1.015706910977505
4482000,-1.0152997142682438
4485600,-1.014892517558983
4489200,-1.014485320849722
4492800,-1.0140781241404608
4496400,-1.0136709274312
4500000,-1.013263730721939
4503600,-1.0128565340126778
4507200,-1.012449337303417
4510800,-1.012042140594156
4514400,-1.0116349438848948
4518000,-1.011227747175634
4521600,-1.010820550466373
4525200,-1.0104133537571118
4528800,-1.010006157047851
4532400,-1.00959896033859
4536000,-1.0091917636293288
4539600,-1.008784566920068
4543200,-1.0083773702108068
4546800,-1.0079701735015458
4550400,-1.007562976792285
4554000,-1.007155780083024
4557600,-1.0067485833737628
4561200,-1.006341386664502
4564800,-1.0059341899552408
4568400,-1.0055269932459798
4572000,-1.005119796536719
4575600,-1.004712599827458
4579200,-1.0043054031181968
4582800,-1.003898206408936
4586400,-1.0034910096996748
4590000,-1.0030838129904138
4593600,-1.002676616281153
4597200,-1.002269419571892
4600800,-1.0018622228626308
4604400,-1.00145502615337
4608000,-1.0010478294441087
4611600,-1.0006406327348478
4615200,-1.000233436025587
4618800,-0.9998262393163259
4622400,-0.9994190426070648
4626000,-0.9990118458978039
4629600,-0.9986046491885429
4633200,-0.9981974524792818
4636800,-0.9977902557700209
4640400,-0.9973830590607599
4644000,-0.9969758623514988
4647600,-0.9965686656422379
4651200,-0.9961614689329769
4654800,-0.9957542722237158
4658400,-0.9953470755144549
4662000,-0.9949398788051939
4665600,-0.9945326820959328
4669200,-0.9941254853866719
4672800,-0.9937182886774109
4676400,-0.9933110919681498
4680000,-0.9929038952588888
4683600,-0.9924966985496279
4687200,-0.9920895018403668
4690800,-0.9916823051311058
4694400,-0.9912751084218449
4698000,-0.9908679117125838
4701600,-0.9904607150033228
4705200,-0.9900535182940619
4708800,-0.9896463215848008
4712400,-0.9892391248755398
4716000,-0.9888319281662787
4719600,-0.9884247314570178
4723200,-0.9880175347477568
4726800,-0.9876103380384957
4730400,-0.9872031413292348
4734000,-0.9867959446199738
4737600,-0.9863887479107127
4741200,-0.9859815512014518
4744800,-0.9855743544921908
4748400,-0.9851671577829297
4752000,-0.9847599610736688
4755600,-0.9843527643644078
4759200,-0.9839455676551467
4762800,-0.9835383709458858
4766400,-0.9831311742366248
4770000,-0.9827239775273637
4773600,-0.9823167808181028
4777200,-0.9819095841088418
4780800,-0.9815023873995807
4784400,-0.9810951906903198
4788000,-0.9806879939810588
4791600,-0.9802807972717977
4795200,-0.9798736005625368
4798800,-0.9794664038532758
4802400,-0.9790592071440147
4806000,-0.9786520104347538
4809600,-0.9782448137254928
4813200,-0.9778376170162317
4816800,-0.9774304203069708
4820400,-0.9770232235977098
4824000,-0.9766160268884487
4827600,-0.9762088301791878
4831200,-0.9758016334699268
4834800,-0.9753944367606657
4838400,-0.9749872400514048
4842000,-0.9745800433421438
4845600,-0.9741728466328827
4849200,-0.9737656499236218
4852800,-0.9733584532143608
4856400,-0.9729512565050997
4860000,-0.9725440597958388
4863600,-0.9721368630865778
4867200,-0.9717296663773167
4870800,-0.9713224696680558
4874400,-0.9709152729587948
4878000,-0.9705080762495337
4881600,-0.9701008795402728
4885200,-0.9696936828310118
4888800,-0.9692864861217507
4892400,-0.9688792894124898
4896000,-0.9684720927032288
4899600,-0.9680648959939677
4903200,-0.9676576992847067
4906800,-0.9672505025754458
4910400,-0.9668433058661847
4914000,-0.9664361091569237
4917600,-0.9660289124476628
4921200,-0.9656217157384017
4924800,-0.9652145190291407
4928400,-0.9648073223198796
4932000,-0.9644001256106187
4935600,-0.9639929289013577
4939200,-0.9635857321920966
4942800,-0.9631785354828357
4946400,-0.9627713387735747
4950000,-0.9623641420643136
4953600,-0.9619569453550527
4957200,-0.9615497486457917
4960800,-0.9611425519365306
4964400,-0.9607353552272697
4968000,-0.9603281585180087
4971600,-0.9599209618087476
4975200,-0.9595137650994867
4978800,-0.9591065683902257
4982400,-0.9586993716809646
4986000,-0.9582921749717037
4989600,-0.9578849782624427
4993200,-0.9574777815531816
4996800,-0.9570705848439207
5000400,-0.9566633881346597
5004000,-0.9562561914253986
5007600,-0.9558489947161377
5011200,-0.9554417980068767
5014800,-0.9550346012976156
5018400,-0.9546274045883547
5022000,-0.9542202078790937
5025600,-0.9538130111698326
5029200,-0.9534058144605717
5032800,-0.9529986177513107
5036400,-0.9525914210420496
5040000,-0.9521842243327887
5043600,-0.9517770276235277
5047200,-0.9513698309142666
5050800,-0.9509626342050057
5054400,-0.9505554374957447
5058000,-0.9501482407864836
5061600,-0.9497410440772227
5065200,-0.9493338473679617
5068800,-0.9489266506587006
5072400,-0.9485194539494397
5076000,-0.9481122572401787
5079600,-0.9477050605309176
5083200,-0.9472978638216567
5086800,-0.9468906671123957
5090400,-0.9464834704031346
5094000,-0.9460762736938737
5097600,-0.9456690769846127
5101200,-0.9452618802753516
5104800,-0.9448546835660907
5108400,-0.9444474868568297
5112000,-0.9440402901475686
5115600,-0.9436330934383076
5119200,-0.9432258967290467
5122800,-0.9428187000197856
5126400,-0.9424115033105246
5130000,-0.9420043066012637
5133600,-0.9415971098920026
5137200,-0.9411899131827416
5140800,-0.9407827164734806
5144400,-0.9403755197642196
5148000,-0.9399683230549586
5151600,-0.9395611263456976
5155200,-0.9391539296364366
5158800,-0.9387467329271756
5162400,-0.9383395362179145
5166000,-0.9379323395086536
5169600,-0.9375251427993926
5173200,-0.9371179460901315
5176800,-0.9367107493808706
5180400,-0.9363035526716096
5184000,-0.9358963559623485
5187600,-0.9354891592530876
5191200,-0.9350819625438266
5194800,-0.9346747658345655
5198400,-0.9342675691253046
5202000,-0.9338603724160436
5205600,-0.9334531757067825
5209200,-0.9330459789975216
5212800,-0.9326387822882606
5216400,-0.9322315855789995
5220000,-0.9318243888697386
5223600,-0.9314171921604776
5227200,-0.9310099954512165
5230800,-0.9306027987419556
5234400,-0.9301956020326946
5238000,-0.9297884053234335
5241600,-0.9293812086141726
5245200,-0.9289740119049116
5248800,-0.9285668151956505
5252400,-0.9281596184863896
5256000,-0.9277524217771286
5259600,-0.9273452250678675
5263200,-0.9269380283586066
5266800,-0.9265308316493456
5270400,-0.9261236349400845
5274000,-0.9257164382308236
5277600,-0.9253092415215626
5281200,-0.9249020448123015
5284800,-0.9244948481030406
5288400,-0.9240876513937796
5292000,-0.9236804546845185
5295600,-0.9232732579752576
5299200,-0.9228660612659966
5302800,-0.9224588645567355
5306400,-0.9220516678474746
5310000,-0.9216444711382136
5313600,-0.9212372744289525
5317200,-0.9208300777196916
5320800,-0.9204228810104306
5324400,-0.9200156843011695
5328000,-0.9196084875919086
5331600,-0.9192012908826476
5335200,-0.9187940941733865
5338800,-0.9183868974641255
5342400,-0.9179797007548646
5346000,-0.9175725040456035
5349600,-0.9171653073363425
5353200,-0.9167581106270816
5356800,-0.9163509139178205
5360400,-0.9159437172085595
5364000,-0.9155365204992985
5367600,-0.9151293237900375
5371200,-0.9147221270807765
5374800,-0.9143149303715155
5378400,-0.9139077336622545
5382000,-0.9135005369529935
5385600,-0.9130933402437325
5389200,-0.9126861435344715
5392800,-0.9122789468252105
5396400,-0.9118717501159495
5400000,-0.9114645534066885
5403600,-0.9110573566974275
5407200,-0.9106501599881665
5410800,-0.9102429632789055
5414400,-0.9098357665696445
5418000,-0.9094285698603835
5421600,-0.9090213731511225
5425200,-0.9086141764418615
5428800,-0.9082069797326005
5432400,-0.9077997830233395
5436000,-0.9073925863140785
5439600,-0.9069853896048174
5443200,-0.9065781928955565
5446800,-0.9061709961862955
5450400,-0.9057637994770344
5454000,-0.9053566027677735
5457600,-0.9049494060585125
5461200,-0.9045422093492514
5464800,-0.9041350126399905
5468400,-0.9037278159307295
5472000,-0.9033206192214684
5475600,-0.9029134225122075
5479200,-0.9025062258029465
5482800,-0.9020990290936854
5486400,-0.9016918323844245
5490000,-0.9012846356751635
5493600,-0.9008774389659024
5497200,-0.9004702422566415
5500800,-0.9000630455473805
5504400,-0.8996558488381194
5508000,-0.8992486521288585
5511600,-0.8988414554195975
5515200,-0.8984342587103364
5518800,-0.8980270620010755
5522400,-0.8976198652918145
5526000,-0.8972126685825534
5529600,-0.8968054718732925
5533200,-0.8963982751640315
5536800,-0.8959910784547704
5540400,-0.8955838817455095
5544000,-0.8951766850362485
5547600,-0.8947694883269874
5551200,-0.8943622916177264
5554800,-0.8939550949084655
5558400,-0.8935478981992044
5562000,-0.8931407014899434
5565600,-0.8927335047806825
5569200,-0.8923263080714214
5572800,-0.8919191113621604
5576400,-0.8915119146528994
5580000,-0.8911047179436384
5583600,-0.8906975212343774
5587200,-0.8902903245251164
5590800,-0.8898831278158554
5594400,-0.8894759311065944
5598000,-0.8890687343973334
5601600,-0.8886615376880724
5605200,-0.8882543409788114
5608800,-0.8878471442695504
5612400,-0.8874399475602894
5616000,-0.8870327508510284
5619600,-0.8866255541417674
5623200,-0.8862183574325064
5626800,-0.8858111607232454
5630400,-0.8854039640139844
5634000,-0.8849967673047234
5637600,-0.8845895705954624
5641200,-0.8841823738862014
5644800,-0.8837751771769404
5648400,-0.8833679804676794
5652000,-0.8829607837584184
5655600,-0.8825535870491574
5659200,-0.8821463903398964
5662800,-0.8817391936306354
5666400,-0.8813319969213744
5670000,-0.8809248002121134
5673600,-0.8805176035028524
5677200,-0.8801104067935914
5680800,-0.8797032100843304
5684400,-0.8792960133750694
5688000,-0.8788888166658084
5691600,-0.8784816199565474
5695200,-0.8780744232472864
5698800,-0.8776672265380254
5702400,-0.8772600298287644
5706000,-0.8768528331195033
5709600,-0.8764456364102424
5713200,-0.8760384397009814
5716800,-0.8756312429917203
5720400,-0.8752240462824594
5724000,-0.8748168495731984
5727600,-0.8744096528639373
5731200,-0.8740024561546764
5734800,-0.8735952594454154
5738400,-0.8731880627361543
5742000,-0.8727808660268934
5745600,-0.8723736693176324
5749200,-0.8719664726083713
5752800,-0.8715592758991104
5756400,-0.8711520791898493
5760000,-0.8707448824805883
5763600,-0.8703376857713274
5767200,-0.8699304890620663
5770800,-0.8695232923528053
5774400,-0.8691160956435444
5778000,-0.8687088989342833
5781600,-0.8683017022250223
5785200,-0.8678945055157614
5788800,-0.8674873088065003
5792400,-0.8670801120972393
5796000,-0.8666729153879784
5799600,-0.8662657186787173
5803200,-0.8658585219694563
5806800,-0.8654513252601953
5810400,-0.8650441285509343
5814000,-0.8646369318416733
5817600,-0.8642297351324123
5821200,-0.8638225384231513
5824800,-0.8634153417138903
5828400,-0.8630081450046293
5832000,-0.8626009482953683
5835600,-0.8621937515861073
5839200,-0.8617865548768463
5842800,-0.8613793581675853
5846400,-0.8609721614583243
5850000,-0.8605649647490633
5853600,-0.8601577680398023
5857200,-0.8597505713305413
5860800,-0.8593433746212803
5864400,-0.8589361779120193
5868000,-0.8585289812027583
5871600,-0.8581217844934973
5875200,-0.8577145877842363
5878800,-0.8573073910749753
5882400,-0.8569001943657143
5886000,-0.8564929976564533
5889600,-0.8560858009471923
5893200,-0.8556786042379313
5896800,-0.8552714075286703
5900400,-0.8548642108194093
5904000,-0.8544570141101483
5907600,-0.8540498174008873
5911200,-0.8536426206916263
5914800,-0.8532354239823653
5918400,-0.8528282272731043
5922000,-0.8524210305638433
5925600,-0.8520138338545823
5929200,-0.8516066371453213
5932800,-0.8511994404360603
5936400,-0.8507922437267993
5940000,-0.8503850470175383
5943600,-0.8499778503082773
5947200,-0.8495706535990163
5950800,-0.8491634568897553
5954400,-0.8487562601804943
5958000,-0.8483490634712333
5961600,-0.8479418667619723
5965200,-0.8475346700527113
5968800,-0.8471274733434502
5972400,-0.8467202766341893
5976000,-0.8463130799249283
5979600,-0.8459058832156672
5983200,-0.8454986865064062
5986800,-0.8450914897971453
5990400,-0.8446842930878842
5994000,-0.8442770963786232
5997600,-0.8438698996693623
6001200,-0.8434627029601012
6004800,-0.8430555062508402
6008400,-0.8426483095415793
6012000,-0.8422411128323182
6015600,-0.8418339161230572
6019200,-0.8414267194137963
6022800,-0.8410195227045352
6026400,-0.8406123259952742
6030000,-0.8402051292860132
6033600,-0.8397979325767522
6037200,-0.8393907358674912
6040800,-0.8389835391582302
6044400,-0.8385763424489692
6048000,-0.8381691457397082
6051600,-0.8377619490304472
6055200,-0.8373547523211862
6058800,-0.8369475556119252
6062400,-0.8365403589026642
6066000,-0.8361331621934032
6069600,-0.8357259654841422
6073200,-0.8353187687748812
6076800,-0.8349115720656202
6080400,-0.8345043753563592
6084000,-0.8340971786470982
6087600,-0.8336899819378372
6091200,-0.8332827852285762
6094800,-0.8328755885193152
6098400,-0.8324683918100542
6102000,-0.8320611951007932
6105600,-0.8316539983915322
6109200,-0.8312468016822712
6112800,-0.8308396049730102
6116400,-0.8304324082637492
6120000,-0.8300252115544882
6123600,-0.8296180148452272
6127200,-0.8292108181359662
6130800,-0.8288036214267052
6134400,-0.8283964247174442
6138000,-0.8279892280081832
6141600,-0.8275820312989222
6145200,-0.8271748345896612
6148800,-0.8267676378804002
6152400,-0.8263604411711392
6156000,-0.8259532444618782
6159600,-0.8255460477526172
6163200,-0.8251388510433562
6166800,-0.8247316543340952
6170400,-0.8243244576248342
6174000,-0.8239172609155732
6177600,-0.8235100642063122
6181200,-0.8231028674970512
6184800,-0.8226956707877902
6188400,-0.8222884740785292
6192000,-0.8218812773692681
6195600,-0.8214740806600072
6199200,-0.8210668839507462
6202800,-0.8206596872414851
6206400,-0.8202524905322242
6210000,-0.8198452938229632
6213600,-0.8194380971137021
6217200,-0.8190309004044412
6220800,-0.8186237036951802
6224400,-0.8182165069859191
6228000,-0.8178093102766582
6231600,-0.8174021135673972
6235200,-0.8169949168581361
6238800,-0.8165877201488752
6242400,-0.8161805234396141
6246000,-0.8157733267303531
6249600,-0.8153661300210922
6253200,-0.8149589333118311
6256800,-0.8145517366025701
6260400,-0.8141445398933091
6264000,-0.8137373431840481
6267600,-0.8133301464747871
6271200,-0.8129229497655261
6274800,-0.8125157530562651
6278400,-0.8121085563470041
6282000,-0.8117013596377431
6285600,-0.8112941629284821
6289200,-0.8108869662192211
6292800,-0.8104797695099601
6296400,-0.8100725728006991
6300000,-0.8096653760914381
6303600,-0.8092581793821771
6307200,-0.8088509826729161
6310800,-0.8084437859636551
6314400,-0.8080365892543941
6318000,-0.8076293925451331
6321600,-0.8072221958358721
6325200,-0.8068149991266111
6328800,-0.8064078024173501
6332400,-0.8060006057080891
6336000,-0.8055934089988281
6339600,-0.8051862122895671
6343200,-0.8047790155803061
6346800,-0.8043718188710451
6350400,-0.8039646221617841
6354000,-0.8035574254525231
6357600,-0.8031502287432621
6361200,-0.8027430320340011
6364800,-0.8023358353247401
6368400,-0.8019286386154791
6372000,-0.8015214419062181
6375600,-0.8011142451969571
6379200,-0.8007070484876961
6382800,-0.8002998517784351
6386400,-0.7998926550691741
6390000,-0.7994854583599131
6393600,-0.7990782616506521
6397200,-0.7986710649413911
6400800,-0.7982638682321301
6404400,-0.797856671522869
6408000,-0.7974494748136081
6411600,-0.7970422781043471
6415200,-0.796635081395086
6418800,-0.7962278846858251
6422400,-0.7958206879765641
6426000,-0.795413491267303
6429600,-0.7950062945580421
6433200,-0.7945990978487811
6436800,-0.79419190113952
6440400,-0.7937847044302591
6444000,-0.7933775077209981
6447600,-0.792970311011737
6451200,-0.7925631143024761
6454800,-0.792155917593215
6458400,-0.791748720883954
6462000,-0.7913415241746931
6465600,-0.790934327465432
6469200,-0.790527130756171
6472800,-0.79011993404691
6476400,-0.789712737337649
6480000,-0.789305540628388
6483600,-0.788898343919127
6487200,-0.788491147209866
6490800,-0.788083950500605
6494400,-0.787676753791344
6498000,-0.787269557082083
6501600,-0.786862360372822
6505200,-0.786455163663561
6508800,-0.7860479669543
6512400,-0.785640770245039
6516000,-0.785233573535778
6519600,-0.784826376826517
6523200,-0.784419180117256
6526800,-0.784011983407995
6530400,-0.783604786698734
6534000,-0.783197589989473
6537600,-0.782790393280212
6541200,-0.782383196570951
6544800,-0.78197599986169
6548400,-0.781568803152429
6552000,-0.781161606443168
6555600,-0.780754409733907
6559200,-0.780347213024646
6562800,-0.779940016315385
6566400,-0.779532819606124
6570000,-0.779125622896863
6573600,-0.778718426187602
6577200,-0.778311229478341
6580800,-0.77790403276908
6584400,-0.777496836059819
6588000,-0.777089639350558
6591600,-0.776682442641297
6595200,-0.776275245932036
6598800,-0.775868049222775
6602400,-0.775460852513514
6606000,-0.775053655804253
6609600,-0.774646459094992
6613200,-0.774239262385731
6616800,-0.77383206567647
6620400,-0.773424868967209
6624000,-0.773017672257948
6627600,-0.7726104755486869
6631200,-0.772203278839426
6634800,-0.771796082130165
6638400,-0.7713888854209039
6642000,-0.770981688711643
6645600,-0.770574492002382
6649200,-0.7701672952931209
6652800,-0.76976009858386
6656400,-0.769352901874599
6660000,-0.7689457051653379
6663600,-0.768538508456077
6667200,-0.768131311746816
6670800,-0.7677241150375549
6674400,-0.767316918328294
6678000,-0.7669097216190329
6681600,-0.7665025249097719
6685200,-0.766095328200511
6688800,-0.7656881314912499
6692400,-0.7652809347819889
6696000,-0.764873738072728
6699600,-0.7644665413634669
6703200,-0.7640593446542059
6706800,-0.763652147944945
6710400,-0.7632449512356839
6714000,-0.7628377545264229
6717600,-0.762430557817162
6721200,-0.7620233611079009
6724800,-0.7616161643986399
6728400,-0.761208967689379
6732000,-0.7608017709801179
6735600,-0.7603945742708569
6739200,-0.759987377561596
6742800,-0.7595801808523349
6746400,-0.7591729841430739
6750000,-0.758765787433813
6753600,-0.7583585907245519
6757200,-0.7579513940152909
6760800,-0.75754419730603
6764400,-0.7571370005967689
6768000,-0.7567298038875079
6771600,-0.756322607178247
6775200,-0.7559154104689859
6778800,-0.7555082137597249
6782400,-0.755101017050464
6786000,-0.7546938203412029
6789600,-0.7542866236319419
6793200,-0.753879426922681
6796800,-0.7534722302134199
6800400,-0.7530650335041589
6804000,-0.752657836794898
6807600,-0.7522506400856369
6811200,-0.7518434433763759
6814800,-0.751436246667115
6818400,-0.7510290499578539
6822000,-0.7506218532485929
6825600,-0.750214656539332
6829200,-0.7498074598300709
6832800,-0.7494002631208099
6836400,-0.748993066411549
6840000,-0.7485858697022878
6843600,-0.7481786729930269
6847200,-0.747771476283766
6850800,-0.7473642795745048
6854400,-0.7469570828652439
6858000,-0.746549886155983
6861600,-0.7461426894467218
6865200,-0.7457354927374609
6868800,-0.7453282960281999
6872400,-0.7449210993189388
6876000,-0.7445139026096779
6879600,-0.7441067059004169
6883200,-0.7436995091911558
6886800,-0.7432923124818949
6890400,-0.7428851157726338
6894000,-0.7424779190633728
6897600,-0.7420707223541119
6901200,-0.7416635256448508
6904800,-0.7412563289355898
6908400,-0.7408491322263289
6912000,-0.7404419355170678
6915600,-0.7400347388078068
6919200,-0.7396275420985459
6922800,-0.7392203453892848
6926400,-0.7388131486800238
6930000,-0.7384059519707629
6933600,-0.7379987552615018
6937200,-0.7375915585522408
6940800,-0.7371843618429799
6944400,-0.7367771651337188
6948000,-0.7363699684244578
6951600,-0.7359627717151969
6955200,-0.7355555750059358
6958800,-0.7351483782966748
6962400,-0.7347411815874139
6966000,-0.7343339848781528
6969600,-0.7339267881688918
6973200,-0.7335195914596309
6976800,-0.7331123947503698
6980400,-0.7327051980411088
6984000,-0.7322980013318479
6987600,-0.7318908046225868
6991200,-0.7314836079133258
6994800,-0.7310764112040649
6998400,-0.7306692144948038
7002000,-0.7302620177855428
7005600,-0.7298548210762819
7009200,-0.7294476243670208
7012800,-0.7290404276577598
7016400,-0.7286332309484989
7020000,-0.7282260342392378
7023600,-0.7278188375299768
7027200,-0.7274116408207159
7030800,-0.7270044441114548
7034400,-0.7265972474021938
7038000,-0.7261900506929329
7041600,-0.7257828539836718
7045200,-0.7253756572744108
7048800,-0.7249684605651499
7052400,-0.7245612638558887
7056000,-0.7241540671466278
7059600,-0.7237468704373669
7063200,-0.7233396737281057
7066800,-0.7229324770188448
7070400,-0.7225252803095839
7074000,-0.7221180836003227
7077600,-0.7217108868910618
7081200,-0.7213036901818008
7084800,-0.7208964934725397
7088400,-0.7204892967632788
7092000,-0.7200821000540178
7095600,-0.7196749033447567
7099200,-0.7192677066354958
7102800,-0.7188605099262348
7106400,-0.7184533132169737
7110000,-0.7180461165077128
7113600,-0.7176389197984517
7117200,-0.7172317230891907
7120800,-0.7168245263799298
7124400,-0.7164173296706687
7128000,-0.7160101329614077
7131600,-0.7156029362521468
7135200,-0.7151957395428857
7138800,-0.7147885428336247
7142400,-0.7143813461243638
7146000,-0.7139741494151027
7149600,-0.7135669527058417
7153200,-0.7131597559965808
7156800,-0.7127525592873197
7160400,-0.7123453625780587
7164000,-0.7119381658687978
7167600,-0.7115309691595367
7171200,-0.7111237724502757
7174800,-0.7107165757410148
7178400,-0.7103093790317537
7182000,-0.7099021823224927
7185600,-0.7094949856132318
7189200,-0.7090877889039707
7192800,-0.7086805921947097
7196400,-0.7082733954854488
7200000,-0.7078661987761877
7203600,-0.7074590020669267
7207200,-0.7070518053576658
7210800,-0.7066446086484047
7214400,-0.7062374119391437
7218000,-0.7058302152298828
7221600,-0.7054230185206217
7225200,-0.7050158218113607
7228800,-0.7046086251020998
7232400,-0.7042014283928387
7236000,-0.7037942316835777
7239600,-0.7033870349743168
7243200,-0.7029798382650557
7246800,-0.7025726415557947
7250400,-0.7021654448465338
7254000,-0.7017582481372727
7257600,-0.7013510514280117
7261200,-0.7009438547187508
7264800,-0.7005366580094897
7268400,-0.7001294613002287
7272000,-0.6997222645909678
7275600,-0.6993150678817066
7279200,-0.6989078711724457
7282800,-0.6985006744631848
7286400,-0.6980934777539236
7290000,-0.6976862810446627
7293600,-0.6972790843354018
7297200,-0.6968718876261406
7300800,-0.6964646909168797
7304400,-0.6960574942076188
7308000,-0.6956502974983576
7311600,-0.6952431007890967
7315200,-0.6948359040798358
7318800,-0.6944287073705746
7322400,-0.6940215106613137
7326000,-0.6936143139520526
7329600,-0.6932071172427916
7333200,-0.6927999205335307
7336800,-0.6923927238242696
7340400,-0.6919855271150086
7344000,-0.6915783304057477
7347600,-0.6911711336964866
7351200,-0.6907639369872256
7354800,-0.6903567402779647
7358400,-0.6899495435687036
7362000,-0.6895423468594426
7365600,-0.6891351501501817
7369200,-0.6887279534409206
7372800,-0.6883207567316596
7376400,-0.6879135600223987
7380000,-0.6875063633131376
7383600,-0.6870991666038766
7387200,-0.6866919698946157
7390800,-0.6862847731853546
7394400,-0.6858775764760936
7398000,-0.6854703797668327
7401600,-0.6850631830575716
7405200,-0.6846559863483106
7408800,-0.6842487896390497
7412400,-0.6838415929297886
7416000,-0.6834343962205276
7419600,-0.6830271995112667
7423200,-0.6826200028020056
7426800,-0.6822128060927446
7430400,-0.6818056093834837
7434000,-0.6813984126742226
7437600,-0.6809912159649616
7441200,-0.6805840192557007
7444800,-0.6801768225464396
7448400,-0.6797696258371786
7452000,-0.6793624291279177
7455600,-0.6789552324186566
7459200,-0.6785480357093956
7462800,-0.6781408390001347
7466400,-0.6777336422908736
7470000,-0.6773264455816126
7473600,-0.6769192488723517
7477200,-0.6765120521630906
7480800,-0.6761048554538296
7484400,-0.6756976587445687
7488000,-0.6752904620353075
7491600,-0.6748832653260466
7495200,-0.6744760686167857
7498800,-0.6740688719075245
7502400,-0.6736616751982636
7506000,-0.6732544784890027
7509600,-0.6728472817797415
7513200,-0.6724400850704806
7516800,-0.6720328883612197
7520400,-0.6716256916519585
7524000,-0.6712184949426976
7527600,-0.6708112982334367
7531200,-0.6704041015241755
7534800,-0.6699969048149146
7538400,-0.6695897081056535
7542000,-0.6691825113963925
7545600,-0.6687753146871316
7549200,-0.6683681179778705
7552800,-0.6679609212686095
7556400,-0.6675537245593486
7560000,-0.6671465278500875
7563600,-0.6667393311408265
7567200,-0.6663321344315656
7570800,-0.6659249377223045
7574400,-0.6655177410130435
7578000,-0.6651105443037826
7581600,-0.6647033475945215
7585200,-0.6642961508852605
7588800,-0.6638889541759996
7592400,-0.6634817574667385
7596000,-0.6630745607574775
7599600,-0.6626673640482166
7603200,-0.6622601673389555
7606800,-0.6618529706296945
7610400,-0.6614457739204336
7614000,-0.6610385772111725
7617600,-0.6606313805019115
7621200,-0.6602241837926506
7624800,-0.6598169870833895
7628400,-0.6594097903741285
7632000,-0.6590025936648676
7635600,-0.6585953969556065
7639200,-0.6581882002463455
7642800,-0.6577810035370846
7646400,-0.6573738068278235
7650000,-0.6569666101185625
7653600,-0.6565594134093016
7657200,-0.6561522167000405
7660800,-0.6557450199907795
7664400,-0.6553378232815186
7668000,-0.6549306265722575
7671600,-0.6545234298629965
7675200,-0.6541162331537356
7678800,-0.6537090364444745
7682400,-0.6533018397352135
7686000,-0.6528946430259526
7689600,-0.6524874463166915
7693200,-0.6520802496074305
7696800,-0.6516730528981696
7700400,-0.6512658561889085
7704000,-0.6508586594796475
7707600,-0.6504514627703866
7711200,-0.6500442660611254
7714800,-0.6496370693518645
7718400,-0.6492298726426036
7722000,-0.6488226759333424
7725600,-0.6484154792240815
7729200,-0.6480082825148206
7732800,-0.6476010858055594
7736400,-0.6471938890962985
7740000,-0.6467866923870376
7743600,-0.6463794956777764
7747200,-0.6459722989685155
7750800,-0.6455651022592546
7754400,-0.6451579055499934
7758000,-0.6447507088407325
7761600,-0.6443435121314715
7765200,-0.6439363154222104
7768800,-0.6435291187129495
7772400,-0.6431219220036885
7776000,-0.6427147252944274
7779600,-0.6423075285851665
7783200,-0.6419003318759054
7786800,-0.6414931351666444
7790400,-0.6410859384573835
7794000,-0.6406787417481224
7797600,-0.6402715450388614
7801200,-0.6398643483296005
7804800,-0.6394571516203394
7808400,-0.6390499549110784
7812000,-0.6386427582018175
7815600,-0.6382355614925564
7819200,-0.6378283647832954
7822800,-0.6374211680740345
7826400,-0.6370139713647734
7830000,-0.6366067746555124
7833600,-0.6361995779462515
7837200,-0.6357923812369904
7840800,-0.6353851845277294
7844400,-0.6349779878184685
7848000,-0.6345707911092074
7851600,-0.6341635943999464
7855200,-0.6337563976906855
7858800,-0.6333492009814244
7862400,-0.6329420042721634
7866000,-0.6325348075629025
7869600,-0.6321276108536414
7873200,-0.6317204141443804
7876800,-0.6313132174351195
7880400,-0.6309060207258584
7884000,-0.6304988240165974
7887600,-0.6300916273073365
7891200,-0.6296844305980754
7894800,-0.6292772338888144
7898400,-0.6288700371795534
7902000,-0.6284628404702924
7905600,-0.6280556437610314
7909200,-0.6276484470517704
7912800,-0.6272412503425094
7916400,-0.6268340536332484
7920000,-0.6264268569239874
7923600,-0.6260196602147264
7927200,-0.6256124635054654
7930800,-0.6252052667962044
7934400,-0.6247980700869434
7938000,-0.6243908733776824
7941600,-0.6239836766684214
7945200,-0.6235764799591604
7948800,-0.6231692832498994
7952400,-0.6227620865406384
7956000,-0.6223548898313774
7959600,-0.6219476931221164
7963200,-0.6215404964128554
7966800,-0.6211332997035944
7970400,-0.6207261029943334
7974000,-0.6203189062850724
7977600,-0.6199117095758114
7981200,-0.6195045128665504
7984800,-0.6190973161572894
7988400,-0.6186901194480284
7992000,-0.6182829227387674
7995600,-0.6178757260295064
7999200,-0.6174685293202453
8002800,-0.6170613326109844
8006400,-0.6166541359017234
8010000,-0.6162469391924623
8013600,-0.6158397424832014
8017200,-0.6154325457739404
8020800,-0.6150253490646793
8024400,-0.6146181523554184
8028000,-0.6142109556461574
8031600,-0.6138037589368963
8035200,-0.6133965622276354
8038800,-0.6129893655183744
8042400,-0.6125821688091133
8046000,-0.6121749720998524
8049600,-0.6117677753905914
8053200,-0.6113605786813303
8056800,-0.6109533819720694
8060400,-0.6105461852628083
8064000,-0.6101389885535473
8067600,-0.6097317918442864
8071200,-0.6093245951350253
8074800,-0.6089173984257643
8078400,-0.6085102017165034
8082000,-0.6081030050072423
8085600,-0.6076958082979813
8089200,-0.6072886115887204
8092800,-0.6068814148794593
8096400,-0.6064742181701983
8100000,-0.6060670214609374
8103600,-0.6056598247516763
8107200,-0.6052526280424153
8110800,-0.6048454313331543
8114400,-0.6044382346238933
8118000,-0.6040310379146323
8121600,-0.6036238412053713
8125200,-0.6032166444961103
8128800,-0.6028094477868493
8132400,-0.6024022510775883
8136000,-0.6019950543683273
8139600,-0.6015878576590663
8143200,-0.6011806609498053
8146800,-0.6007734642405443
8150400,-0.6003662675312833
8154000,-0.5999590708220223
8157600,-0.5995518741127613
8161200,-0.5991446774035003
8164800,-0.5987374806942393
8168400,-0.5983302839849783
8172000,-0.5979230872757173
8175600,-0.5975158905664563
8179200,-0.5971086938571953
8182800,-0.5967014971479343
8186400,-0.5962943004386733
8190000,-0.5958871037294123
8193600,-0.5954799070201513
8197200,-0.5950727103108903
8200800,-0.5946655136016293
8204400,-0.5942583168923683
8208000,-0.5938511201831073
8211600,-0.5934439234738463
8215200,-0.5930367267645853
8218800,-0.5926295300553243
8222400,-0.5922223333460632
8226000,-0.5918151366368023
8229600,-0.5914079399275413
8233200,-0.5910007432182802
8236800,-0.5905935465090193
8240400,-0.5901863497997583
8244000,-0.5897791530904972
8247600,-0.5893719563812363
8251200,-0.5889647596719753
8254800,-0.5885575629627142
8258400,-0.5881503662534533
8262000,-0.5877431695441923
8265600,-0.5873359728349312
8269200,-0.5869287761256703
8272800,-0.5865215794164093
8276400,-0.5861143827071482
8280000,-0.5857071859978873
8283600,-0.5852999892886263
8287200,-0.5848927925793652
8290800,-0.5844855958701043
8294400,-0.5840783991608433
8298000,-0.5836712024515822
8301600,-0.5832640057423213
8305200,-0.5828568090330603
8308800,-0.5824496123237992
8312400,-0.5820424156145383
8316000,-0.5816352189052773
8319600,-0.5812280221960162
8323200,-0.5808208254867553
8326800,-0.5804136287774943
8330400,-0.5800064320682332
8334000,-0.5795992353589722
8337600,-0.5791920386497112
8341200,-0.5787848419404502
8344800,-0.5783776452311892
8348400,-0.5779704485219282
8352000,-0.5775632518126672
8355600,-0.5771560551034062
8359200,-0.5767488583941452
8362800,-0.5763416616848842
8366400,-0.5759344649756232
8370000,-0.5755272682663622
8373600,-0.5751200715571012
8377200,-0.5747128748478402
8380800,-0.5743056781385792
8384400,-0.5738984814293182
8388000,-0.5734912847200572
8391600,-0.5730840880107962
8395200,-0.5726768913015352
8398800,-0.5722696945922742
8402400,-0.5718624978830132
8406000,-0.5714553011737522
8409600,-0.5710481044644912
8413200,-0.5706409077552302
8416800,-0.5702337110459692
8420400,-0.5698265143367082
8424000,-0.5694193176274472
8427600,-0.5690121209181862
8431200,-0.5686049242089252
8434800,-0.5681977274996641
8438400,-0.5677905307904032
8442000,-0.5673833340811422
8445600,-0.5669761373718811
8449200,-0.5665689406626202
8452800,-0.5661617439533592
8456400,-0.5657545472440981
8460000,-0.5653473505348372
8463600,-0.5649401538255762
8467200,-0.5645329571163151
8470800,-0.5641257604070542
8474400,-0.5637185636977932
8478000,-0.5633113669885321
8481600,-0.5629041702792712
8485200,-0.5624969735700102
8488800,-0.5620897768607491
8492400,-0.5616825801514882
8496000,-0.5612753834422272
8499600,-0.5608681867329661
8503200,-0.5604609900237052
8506800,-0.5600537933144442
8510400,-0.5596465966051831
8514000,-0.5592393998959222
8517600,-0.5588322031866612
8521200,-0.5584250064774001
8524800,-0.5580178097681392
8528400,-0.5576106130588782
8532000,-0.5572034163496171
8535600,-0.5567962196403562
8539200,-0.5563890229310952
8542800,-0.5559818262218341
8546400,-0.5555746295125731
8550000,-0.5551674328033122
8553600,-0.5547602360940511
8557200,-0.5543530393847901
8560800,-0.5539458426755292
8564400,-0.5535386459662681
8568000,-0.5531314492570071
8571600,-0.5527242525477462
8575200,-0.5523170558384851
8578800,-0.5519098591292241
8582400,-0.5515026624199632
8586000,-0.5510954657107021
8589600,-0.5506882690014411
8593200,-0.5502810722921802
8596800,-0.5498738755829191
8600400,-0.5494666788736581
8604000,-0.5490594821643972
8607600,-0.5486522854551361
8611200,-0.5482450887458751
8614800,-0.5853581602470923
8618400,-0.6224712317483097
8622000,-0.6595843032495269
8625600,-0.6966973747507441
8629200,-0.7338104462519615
8632800,-0.7709235177531787
8636400,-0.8080365892543959
8640000,-0.8451496607556133
8643600,-0.8822627322568306
8647200,-0.9193758037580478
8650800,-0.9564888752592651
8654400,-0.9936019467604824
8658000,-1.0307150182616995
8661600,-1.0678280897629169
8665200,-1.0661879919061712
8668800,-1.0645478940494255
8672400,-1.0629077961926798
8676000,-1.061267698335934
8679600,-1.0596276004791882
8683200,-1.0579875026224426
8686800,-1.0563474047656969
8690400,-1.0547073069089512
8694000,-1.0530672090522055
8697600,-1.0514271111954598
8701200,-1.049787013338714
8704800,-1.0481469154819683
8708400,-1.0465068176252226
8712000,-1.044866719768477
8715600,-1.0432266219117312
8719200,-1.0415865240549855
8722800,-1.0399464261982398
8726400,-1.038306328341494
8730000,-1.0366662304847483
8733600,-1.0350261326280026
8737200,-1.033386034771257
8740800,-1.0317459369145112
8744400,-1.0301058390577655
8748000,-1.0284657412010199
8751600,-1.0268256433442742
8755200,-1.0251855454875283
8758800,-1.0235454476307826
8762400,-1.021905349774037
8766000,-1.0202652519172912
8769600,-1.0186251540605455
8773200,-1.0169850562037999
8776800,-1.0153449583470542
8780400,-1.0137048604903083
8784000,-1.0120647626335626
8787600,-1.010424664776817
8791200,-1.0087845669200712
8794800,-1.0215773302026878
8798400,-1.0343700934853046
8802000,-1.0471628567679212
8805600,-1.0599556200505378
8809200,-1.0727483833331546
8812800,-1.0855411466157712
8816400,-1.0983339098983878
8820000,-1.1111266731810046
8823600,-1.1239194364636211
8827200,-1.1367121997462377
8830800,-1.1495049630288545
8834400,-1.162297726311471
8838000,-1.1609856480260745
8841600,-1.159673569740678
8845200,-1.1583614914552813
8848800,-1.1570494131698847
8852400,-1.1557373348844882
8856000,-1.1544252565990916
8859600,-1.153113178313695
8863200,-1.1518011000282984
8866800,-1.1504890217429018
8870400,-1.1491769434575052
8874000,-1.1478648651721086
8877600,-1.146552786886712
8881200,-1.1452407086013154
8884800,-1.1439286303159188
8888400,-1.1426165520305223
8892000,-1.1413044737451257
8895600,-1.139992395459729
8899200,-1.1386803171743325
8902800,-1.137368238888936
8906400,-1.1360561606035393
8910000,-1.1347440823181427
8913600,-1.1334320040327461
8917200,-1.1321199257473495
8920800,-1.130807847461953
8924400,-1.1294957691765564
8928000,-1.1281836908911598
8931600,-1.1268716126057632
8935200,-1.1255595343203666
8938800,-1.12424745603497
8942400,-1.1229353777495734
8946000,-1.1216232994641768
8949600,-1.1203112211787802
8953200,-1.1189991428933836
8956800,-1.117687064607987
8960400,-1.1163749863225905
8964000,-1.1150629080371939
8967600,-1.1137508297517973
8971200,-1.1124387514664007
8974800,-1.111126673181004
8978400,-1.1098145948956075
8982000,-1.108502516610211
8985600,-1.1071904383248143
8989200,-1.1058783600394178
8992800,-1.1045662817540212
8996400,-1.1032542034686246
9000000,-1.101942125183228
9003600,-1.1006300468978316
9007200,-1.0993179686124348
9010800,-1.0980058903270384
9014400,-1.0966938120416418
9018000,-1.0953817337562453
9021600,-1.0940696554708487
9025200,-1.092757577185452
9028800,-1.0914454989000555
9032400,-1.090133420614659
9036000,-1.0888213423292623
9039600,-1.0875092640438657
9043200,-1.0861971857584691
9046800,-1.0848851074730725
9050400,-1.083573029187676
9054000,-1.0822609509022794
9057600,-1.0809488726168828
9061200,-1.0796367943314862
9064800,-1.0783247160460896
9068400,-1.077012637760693
9072000,-1.0757005594752964
9075600,-1.0743884811898998
9079200,-1.0730764029045032
9082800,-1.0717643246191066
9086400,-1.07045224633371
9090000,-1.0691401680483135
9093600,-1.0678280897629169
9097200,-1.0665160114775203
9100800,-1.0652039331921237
9104400,-1.063891854906727
9108000,-1.0625797766213305
9111600,-1.061267698335934
9115200,-1.0599556200505373
9118800,-1.0586435417651407
9122400,-1.0573314634797442
9126000,-1.0560193851943476
9129600,-1.054707306908951
9133200,-1.0533952286235544
9136800,-1.0520831503381578
9140400,-1.0507710720527612
9144000,-1.0494589937673646
9147600,-1.048146915481968
9151200,-1.0468348371965714
9154800,-1.0455227589111749
9158400,-1.0442106806257783
9162000,-1.0428986023403817
9165600,-1.041586524054985
9169200,-1.0402744457695885
9172800,-1.038962367484192
9176400,-1.0376502891987953
9180000,-1.0363382109133987
9183600,-1.0350261326280021
9187200,-1.0337140543426055
9190800,-1.032401976057209
9194400,-1.0310898977718124
9198000,-1.0297778194864158
9201600,-1.0284657412010192
9205200,-1.0271536629156226
9208800,-1.025841584630226
9212400,-1.0245295063448294
9216000,-1.0232174280594328
9219600,-1.0219053497740362
9223200,-1.0205932714886397
9226800,-1.019281193203243
9230400,-1.0179691149178465
9234000,-1.0166570366324499
9237600,-1.0153449583470533
9241200,-1.0140328800616567
9244800,-1.0127208017762601
9248400,-1.0114087234908635
9252000,-1.010096645205467
9255600,-1.0087845669200703
9259200,-1.0074724886346738
9262800,-1.0061604103492772
9266400,-1.0048483320638806
9270000,-1.003536253778484
9273600,-1.0022241754930874
9277200,-1.0009120972076908
9280800,-0.9996000189222943
9284400,-0.9982879406368977
9288000,-0.9969758623515012
9291600,-0.9956637840661046
9295200,-0.994351705780708
9298800,-0.9930396274953114
9302400,-0.9917275492099148
9306000,-0.9904154709245182
9309600,-0.9891033926391216
9313200,-0.987791314353725
9316800,-0.9864792360683284
9320400,-0.9851671577829318
9324000,-0.9838550794975353
9327600,-0.9825430012121387
9331200,-0.9812309229267421
9334800,-0.9799188446413455
9338400,-0.9786067663559489
9342000,-0.9772946880705523
9345600,-0.9759826097851557
9349200,-0.9746705314997591
9352800,-0.9733584532143625
9356400,-0.9692564821537016
9360000,-0.9651545110930408
9363600,-0.9610525400323799
9367200,-0.956950568971719
9370800,-0.9528485979110582
9374400,-0.9487466268503973
9378000,-0.9446446557897364
9381600,-0.9405426847290757
9385200,-0.9364407136684147
9388800,-0.9323387426077538
9392400,-0.928236771547093
9396000,-0.9241348004864322
9399600,-0.9200328294257714
9403200,-0.9159308583651105
9406800,-0.9118288873044496
9410400,-0.9077269162437887
9414000,-0.9036249451831279
9417600,-0.899522974122467
9421200,-0.8954210030618062
9424800,-0.8913190320011453
9428400,-0.8872170609404844
9432000,-0.8831150898798235
9435600,-0.8790131188191627
9439200,-0.8749111477585018
9442800,-0.870809176697841
9446400,-0.8667072056371801
9450000,-0.8626052345765192
9453600,-0.8585032635158584
9457200,-0.8544012924551975
9460800,-0.8502993213945366
9464400,-0.8461973503338758
9468000,-0.8420953792732149
9471600,-0.837993408212554
9475200,-0.8338914371518932
9478800,-0.8297894660912323
9482400,-0.8256874950305715
9486000,-0.8215855239699106
9489600,-0.8174835529092497
9493200,-0.8133815818485888
9496800,-0.809279610787928
9500400,-0.8051776397272671
9504000,-0.8010756686666063
9507600,-0.7969736976059454
9511200,-0.7928717265452845
9514800,-0.7887697554846236
9518400,-0.7846677844239628
9522000,-0.7805658133633019
9525600,-0.7764638423026411
9529200,-0.7723618712419802
9532800,-0.7682599001813193
9536400,-0.7641579291206584
9540000,-0.7600559580599976
9543600,-0.7559539869993367
9547200,-0.7518520159386759
9550800,-0.747750044878015
9554400,-0.7436480738173541
9558000,-0.7395461027566932
9561600,-0.7354441316960324
9565200,-0.7313421606353715
9568800,-0.7272401895747107
9572400,-0.7231382185140498
9576000,-0.7190362474533889
9579600,-0.714934276392728
9583200,-0.7108323053320672
9586800,-0.7067303342714064
9590400,-0.7026283632107455
9594000,-0.6985263921500846
9597600,-0.6944244210894237
9601200,-0.6903224500287628
9604800,-0.686220478968102
9608400,-0.6821185079074412
9612000,-0.6780165368467803
9615600,-0.6739145657861194
9619200,-0.6698125947254585
9622800,-0.6657106236647977
9626400,-0.6616086526041368
9630000,-0.657506681543476
9633600,-0.6534047104828151
9637200,-0.6493027394221542
9640800,-0.6452007683614933
9644400,-0.6410987973008325
9648000,-0.6369968262401716
9651600,-0.6328948551795108
9655200,-0.6287928841188499
9658800,-0.624690913058189
9662400,-0.6205889419975281
9666000,-0.6164869709368673
9669600,-0.6123849998762064
9673200,-0.6082830288155456
9676800,-0.6041810577548847
9680400,-0.6000790866942238
9684000,-0.5959771156335629
9687600,-0.5918751445729021
9691200,-0.5877731735122413
9694800,-0.5836712024515804
9698400,-0.5795692313909195
9702000,-0.5754672603302586
9705600,-0.5713652892695977
9709200,-0.5672633182089369
9712800,-0.5631613471482761
9716400,-0.5590593760876152
9720000,-0.5549574050269543
9723600,-0.5508554339662934
9727200,-0.5467534629056326
9730800,-0.5426514918449717
9734400,-0.538549520784311
9738000,-0.53444754972365
9741600,-0.5303455786629891
9745200,-0.5262436076023282
9748800,-0.5221416365416675
9752400,-0.5180396654810066
9756000,-0.5139376944203458
9759600,-0.5098357233596849
9763200,-0.505733752299024
9766800,-0.501631781238363
9770400,-0.49752981017770226
9774000,-0.49342783911704136
9777600,-0.4893258680563805
9781200,-0.48522389699571966
9784800,-0.48112192593505876
9788400,-0.4770199548743979
9792000,-0.47291798381373706
9795600,-0.46881601275307616
9799200,-0.46471404169241537
9802800,-0.46061207063175447
9806400,-0.45651009957109356
9810000,-0.45240812851043277
9813600,-0.44830615744977187
9817200,-0.44420418638911097
9820800,-0.4401022153284502
9824400,-0.43600024426778927
9828000,-0.43189827320712837
9831600,-0.4277963021464676
9835200,-0.4236943310858067
9838800,-0.41959236002514577
9842400,-0.415490388964485
9846000,-0.4113884179038241
9849600,-0.4072864468431632
9853200,-0.4031844757825024
9856800,-0.3990825047218415
9860400,-0.3949805336611806
9864000,-0.3908785626005198
9867600,-0.3867765915398589
9871200,-0.3826746204791981
9874800,-0.3785726494185372
9878400,-0.3744706783578763
9882000,-0.3703687072972155
9885600,-0.3662667362365546
9889200,-0.3621647651758937
9892800,-0.3580627941152329
9896400,-0.353960823054572
9900000,-0.3498588519939111
9903600,-0.3457568809332503
9907200,-0.3416549098725894
9910800,-0.3375529388119285
9914400,-0.3334509677512677
9918000,-0.3293489966906068
9921600,-0.3252470256299459
9925200,-0.3211450545692851
9928800,-0.3170430835086242
9932400,-0.3129411124479633
9936000,-0.3088391413873025
9939600,-0.3047371703266416
9943200,-0.3006351992659807
9946800,-0.2965332282053199
9950400,-0.292431257144659
9954000,-0.2883292860839981
9957600,-0.2842273150233373
9961200,-0.2801253439626764
9964800,-0.2760233729020155
9968400,-0.2719214018413547
9972000,-0.2678194307806938
9975600,-0.2637174597200329
9979200,-0.2596154886593721
9982800,-0.2555135175987112
9986400,-0.2514115465380503
9990000,-0.24730957547738952
9993600,-0.24320760441672862
9997200,-0.23910563335606783
10000800,-0.23500366229540692
10004400,-0.23090169123474602
10008000,-0.22679972017408523
10011600,-0.22269774911342433
10015200,-0.21859577805276342
10018800,-0.21449380699210263
10022400,-0.21039183593144173
10026000,-0.20628986487078083
10029600,-0.20218789381012003
10033200,-0.19808592274945913
10036800,-0.19398395168879823
10040400,-0.20457106612958442
10044000,-0.21515818057037062
10047600,-0.2257452950111568
10051200,-0.236332409451943
10054800,-0.2469195238927292
10058400,-0.2575066383335154
10062000,-0.2680937527743016
10065600,-0.2786808672150878
10069200,-0.289267981655874
10072800,-0.29985509609666017
10076400,-0.3104422105374464
10080000,-0.3210293249782326
10083600,-0.3316164394190188
10087200,-0.342203553859805
10090800,-0.3527906683005912
10094400,-0.3633777827413774
10098000,-0.3739648971821636
10101600,-0.3845520116229498
10105200,-0.39513912606373597
10108800,-0.40572624050452216
10112400,-0.4163133549453084
10116000,-0.4269004693860946
10119600,-0.4374875838268808
10123200,-0.448074698267667
10126800,-0.4586618127084532
10130400,-0.4692489271492394
10134000,-0.4798360415900256
10137600,-0.49042315603081177
10141200,-0.501010270471598
10144800,-0.5027690137052147
10148400,-0.5045277569388312
10152000,-0.5062865001724479
10155600,-0.5080452434060646
10159200,-0.5098039866396812
10162800,-0.5115627298732979
10166400,-0.5133214731069144
10170000,-0.5150802163405311
10173600,-0.5168389595741478
10177200,-0.5185977028077644
10180800,-0.5203564460413811
10184400,-0.5221151892749978
10188000,-0.5238739325086144
10191600,-0.525632675742231
10195200,-0.5273914189758476
10198800,-0.5291501622094643
10202400,-0.530908905443081
10206000,-0.5326676486766976
10209600,-0.5344263919103143
10213200,-0.536185135143931
10216800,-0.5379438783775475
10220400,-0.5397026216111642
10224000,-0.5414613648447808
10227600,-0.5432201080783975
10231200,-0.5449788513120142
10234800,-0.5467375945456308
10238400,-0.5484963377792474
10242000,-0.5502550810128641
10245600,-0.5520138242464807
10249200,-0.5537725674800974
10252800,-0.555531310713714
10256400,-0.5572900539473307
10260000,-0.5590487971809474
10263600,-0.5608075404145639
10267200,-0.5625662836481806
10270800,-0.5643250268817973
10274400,-0.5660837701154139
10278000,-0.5678425133490306
10281600,-0.5696012565826472
10285200,-0.5713599998162638
10288800,-0.5731187430498805
10292400,-0.5748774862834971
10296000,-0.5766362295171138
10299600,-0.5783949727507305
10303200,-0.5801537159843471
10306800,-0.5819124592179638
10310400,-0.5836712024515804
10314000,-0.585429945685197
10317600,-0.5871886889188137
10321200,-0.5889474321524303
10324800,-0.590706175386047
10328400,-0.5924649186196637
10332000,-0.5942236618532802
10335600,-0.5959824050868969
10339200,-0.5977411483205135
10342800,-0.5994998915541302
10346400,-0.6012586347877469
10350000,-0.6030173780213635
10353600,-0.6047761212549801
10357200,-0.6065348644885968
10360800,-0.6082936077222134
10364400,-0.6100523509558301
10368000,-0.6118110941894468
10371600,-0.6135698374230634
10375200,-0.6153285806566801
10378800,-0.6170873238902966
10382400,-0.6188460671239133
10386000,-0.62060481035753
10389600,-0.6223635535911466
10393200,-0.6241222968247633
10396800,-0.6258810400583799
10400400,-0.6276397832919965
10404000,-0.6293985265256132
10407600,-0.6311572697592298
10411200,-0.6329160129928465
10414800,-0.6346747562264632
10418400,-0.6364334994600798
10422000,-0.6381922426936965
10425600,-0.6399509859273131
10429200,-0.6417097291609297
10432800,-0.6434684723945464
10436400,-0.6452272156281631
10440000,-0.6469859588617797
10443600,-0.6487447020953964
10447200,-0.6505034453290129
10450800,-0.6522621885626296
10454400,-0.6540209317962462
10458000,-0.6557796750298629
10461600,-0.6575384182634796
10465200,-0.6592971614970962
10468800,-0.6610559047307129
10472400,-0.6628146479643295
10476000,-0.6645733911979461
10479600,-0.6663321344315628
10483200,-0.6632516028049796
10486800,-0.6601710711783965
10490400,-0.6570905395518133
10494000,-0.6540100079252301
10497600,-0.650929476298647
10501200,-0.6478489446720638
10504800,-0.6447684130454806
10508400,-0.6416878814188974
10512000,-0.6386073497923143
10515600,-0.6355268181657311
10519200,-0.6324462865391479
10522800,-0.6293657549125647
10526400,-0.6262852232859816
10530000,-0.6232046916593984
10533600,-0.6201241600328152
10537200,-0.6170436284062321
10540800,-0.6139630967796489
10544400,-0.6108825651530658
10548000,-0.6078020335264827
10551600,-0.6047215018998995
10555200,-0.6016409702733163
10558800,-0.5985604386467331
10562400,-0.59547990702015
10566000,-0.5923993753935668
10569600,-0.5893188437669836
10573200,-0.5862383121404005
10576800,-0.5831577805138173
10580400,-0.5800772488872341
10584000,-0.5769967172606509
10587600,-0.5739161856340678
10591200,-0.5708356540074846
10594800,-0.5677551223809014
10598400,-0.5646745907543183
10602000,-0.5615940591277351
10605600,-0.5585135275011519
10609200,-0.5554329958745687
10612800,-0.5523524642479856
10616400,-0.5492719326214024
10620000,-0.5461914009948192
10623600,-0.543110869368236
10627200,-0.5400303377416529
10630800,-0.5369498061150697
10634400,-0.5338692744884865
10638000,-0.5307887428619034
10641600,-0.5277082112353202
10645200,-0.524627679608737
10648800,-0.5215471479821538
10652400,-0.5184666163555707
10656000,-0.5153860847289875
10659600,-0.5123055531024043
10663200,-0.5092250214758212
10666800,-0.506144489849238
10670400,-0.5030639582226548
10674000,-0.4999834265960717
10677600,-0.49690289496948853
10681200,-0.49382236334290536
10684800,-0.4907418317163222
10688400,-0.487661300089739
10692000,-0.48458076846315584
10695600,-0.4815002368365727
10699200,-0.47841970520998955
10702800,-0.4753391735834064
10706400,-0.4722586419568232
10710000,-0.46917811033024004
10713600,-0.46609757870365687
10717200,-0.4630170470770737
10720800,-0.4599365154504905
10724400,-0.45685598382390735
10728000,-0.4537754521973242
10731600,-0.45410347176867333
10735200,-0.4544314913400224
10738800,-0.45475951091137157
10742400,-0.45508753048272066
10746000,-0.4554155500540698
10749600,-0.4557435696254189
10753200,-0.45607158919676805
10756800,-0.4563996087681172
10760400,-0.4567276283394663
10764000,-0.45705564791081543
10767600,-0.4573836674821645
10771200,-0.45771168705351367
10774800,-0.45803970662486276
10778400,-0.4583677261962119
10782000,-0.45869574576756106
10785600,-0.45902376533891015
10789200,-0.4593517849102593
10792800,-0.4596798044816084
10796400,-0.46000782405295754
10800000,-0.46033584362430663
10803600,-0.4606638631956558
10807200,-0.4609918827670049
10810800,-0.461319902338354
10814400,-0.46164792190970316
10818000,-0.46197594148105225
10821600,-0.4623039610524014
10825200,-0.4626319806237505
10828800,-0.46296000019509964
10832400,-0.46328801976644873
10836000,-0.4636160393377979
10839600,-0.46394405890914703
10843200,-0.4642720784804961
10846800,-0.46460009805184527
10850400,-0.46492811762319436
10854000,-0.4652561371945435
10857600,-0.4655841567658926
10861200,-0.46591217633724175
10864800,-0.4662401959085909
10868400,-0.46656821547994
10872000,-0.46689623505128913
10875600,-0.4672242546226382
10879200,-0.46755227419398737
10882800,-0.46788029376533646
10886400,-0.4682083133366856
10890000,-0.46853633290803476
10893600,-0.46886435247938385
10897200,-0.469192372050733
10900800,-0.4695203916220821
10904400,-0.46984841119343124
10908000,-0.47017643076478033
10911600,-0.4705044503361295
10915200,-0.4708324699074786
10918800,-0.4711604894788277
10922400,-0.47148850905017686
10926000,-0.47181652862152595
10929600,-0.4721445481928751
10933200,-0.4724725677642242
10936800,-0.47280058733557334
10940400,-0.4731286069069225
10944000,-0.4734566264782716
10947600,-0.47378464604962073
10951200,-0.4741126656209698
10954800,-0.47444068519231897
10958400,-0.47476870476366806
10962000,-0.4750967243350172
10965600,-0.47542474390636635
10969200,-0.47575276347771545
10972800,-0.4760807830490646
10976400,-0.4764088026204137
10980000,-0.47673682219176283
10983600,-0.4770648417631119
10987200,-0.47739286133446107
10990800,-0.4777208809058102
10994400,-0.4780489004771593
10998000,-0.47837692004850846
11001600,-0.47870493961985755
11005200,-0.4790329591912067
11008800,-0.4793609787625558
11012400,-0.47968899833390494
11016000,-0.4800170179052541
11019600,-0.4803450374766032
11023200,-0.4806730570479523
11026800,-0.4810010766193014
11030400,-0.48132909619065056
11034000,-0.48165711576199965
11037600,-0.4819851353333488
11041200,-0.48231315490469795
11044800,-0.48264117447604704
11048400,-0.4829691940473962
11052000,-0.4832972136187453
11055600,-0.48362523319009443
11059200,-0.4839532527614435
11062800,-0.48428127233279267
11066400,-0.4846092919041418
11070000,-0.4849373114754909
11073600,-0.48526533104684005
11077200,-0.48559335061818915
11080800,-0.4859213701895383
11084400,-0.4862493897608874
11088000,-0.48657740933223653
11091600,-0.4869054289035857
11095200,-0.48723344847493477
11098800,-0.4875614680462839
11102400,-0.487889487617633
11106000,-0.48821750718898216
11109600,-0.48854552676033125
11113200,-0.4888735463316804
11116800,-0.48920156590302954
11120400,-0.48952958547437864
11124000,-0.4898576050457278
11127600,-0.4901856246170769
11131200,-0.490513644188426
11134800,-0.4908416637597751
11138400,-0.49116968333112426
11142000,-0.4914977029024734
11145600,-0.4918257224738225
11149200,-0.49215374204517165
11152800,-0.49248176161652074
11156400,-0.4928097811878699
11160000,-0.493137800759219
11163600,-0.49346582033056813
11167200,-0.4937938399019173
11170800,-0.49412185947326637
11174400,-0.4944498790446155
11178000,-0.4947778986159646
11181600,-0.49510591818731375
11185200,-0.49543393775866285
11188800,-0.495761957330012
11192400,-0.49608997690136114
11196000,-0.49641799647271023
11199600,-0.4967460160440594
11203200,-0.49707403561540847
11206800,-0.4974020551867576
11210400,-0.4977300747581067
11214000,-0.49805809432945586
11217600,-0.49838611390080495
11221200,-0.4987141334721541
11224800,-0.49904215304350324
11228400,-0.49937017261485234
11232000,-0.4996981921862015
11235600,-0.5000262117575506
11239200,-0.5003542313288997
11242800,-0.5006822509002489
11246400,-0.501010270471598
11250000,-0.5104572341264533
11253600,-0.5199041977813086
11257200,-0.5293511614361639
11260800,-0.5387981250910191
11264400,-0.5482450887458744
11268000,-0.5576920524007297
11271600,-0.567139016055585
11275200,-0.5765859797104403
11278800,-0.5860329433652957
11282400,-0.5954799070201509
11286000,-0.6049268706750062
11289600,-0.6143738343298615
11293200,-0.6238207979847168
11296800,-0.6332677616395721
11300400,-0.6427147252944274
11304000,-0.6521616889492827
11307600,-0.6616086526041379
11311200,-0.6710556162589932
11314800,-0.6805025799138485
11318400,-0.6899495435687039
11322000,-0.6993965072235592
11325600,-0.7088434708784144
11329200,-0.7182904345332697
11332800,-0.727737398188125
11336400,-0.7371843618429803
11340000,-0.7323644824272378
11343600,-0.7275446030114953
11347200,-0.7227247235957528
11350800,-0.7179048441800103
11354400,-0.7130849647642679
11358000,-0.7082650853485253
11361600,-0.7034452059327828
11365200,-0.6986253265170403
11368800,-0.6938054471012979
11372400,-0.6889855676855553
11376000,-0.6841656882698128
11379600,-0.6793458088540704
11383200,-0.6745259294383279
11386800,-0.6697060500225853
11390400,-0.6648861706068429
11394000,-0.6600662911911004
11397600,-0.6552464117753578
11401200,-0.6504265323596153
11404800,-0.6456066529438729
11408400,-0.6407867735281304
11412000,-0.6359668941123878
11415600,-0.6311470146966454
11419200,-0.6263271352809029
11422800,-0.6215072558651604
11426400,-0.6166873764494178
11430000,-0.6118674970336754
11433600,-0.6070476176179329
11437200,-0.6022277382021903
11440800,-0.5974078587864479
11444400,-0.5925879793707054
11448000,-0.5877680999549629
11451600,-0.5829482205392205
11455200,-0.5781283411234779
11458800,-0.5733084617077354
11462400,-0.568488582291993
11466000,-0.5636687028762504
11469600,-0.5588488234605079
11473200,-0.5540289440447654
11476800,-0.549209064629023
11480400,-0.5443891852132805
11484000,-0.5395693057975379
11487600,-0.5347494263817955
11491200,-0.529929546966053
11494800,-0.5251096675503104
11498400,-0.5202897881345679
11502000,-0.5154699087188255
11505600,-0.5106500293030829
11509200,-0.5058301498873404
11512800,-0.501010270471598
11516400,-0.5157711511823093
11520000,-0.5305320318930208
11523600,-0.5452929126037321
11527200,-0.5600537933144436
11530800,-0.574814674025155
11534400,-0.5895755547358663
11538000,-0.6043364354465778
11541600,-0.6190973161572891
11545200,-0.6338581968680006
11548800,-0.648619077578712
11552400,-0.6633799582894233
11556000,-0.6781408390001347
11559600,-0.6929017197108461
11563200,-0.7076626004215575
11566800,-0.722423481132269
11570400,-0.7371843618429803
11574000,-0.7519452425536917
11577600,-0.7667061232644031
11581200,-0.7814670039751145
11584800,-0.796227884685826
11588400,-0.8109887653965373
11592000,-0.8257496461072487
11595600,-0.84051052681796
11599200,-0.8552714075286715
11602800,-0.8547579855909077
11606400,-0.8542445636531438
11610000,-0.8537311417153799
11613600,-0.8532177197776161
11617200,-0.8527042978398522
11620800,-0.8521908759020884
11624400,-0.8516774539643246
11628000,-0.8511640320265607
11631600,-0.8506506100887968
11635200,-0.850137188151033
11638800,-0.8496237662132692
11642400,-0.8491103442755054
11646000,-0.8485969223377414
11649600,-0.8480835003999776
11653200,-0.8475700784622138
11656800,-0.84705665652445
11660400,-0.8465432345866861
11664000,-0.8460298126489222
11667600,-0.8455163907111584
11671200,-0.8450029687733945
11674800,-0.8444895468356307
11678400,-0.8439761248978669
11682000,-0.843462702960103
11685600,-0.8429492810223391
11689200,-0.8424358590845753
11692800,-0.8419224371468115
11696400,-0.8414090152090477
11700000,-0.8408955932712838
11703600,-0.8403821713335199
11707200,-0.8398687493957561
11710800,-0.8393553274579922
11714400,-0.8388419055202284
11718000,-0.8383284835824646
11721600,-0.8378150616447007
11725200,-0.8373016397069368
11728800,-0.836788217769173
11732400,-0.8362747958314092
11736000,-0.8357613738936454
11739600,-0.8352479519558814
11743200,-0.8347345300181176
11746800,-0.8342211080803538
11750400,-0.8337076861425899
11754000,-0.8331942642048261
11757600,-0.8326808422670622
11761200,-0.8321674203292984
11764800,-0.8316539983915345
11768400,-0.8297021463967297
11772000,-0.8277502944019249
11775600,-0.8257984424071201
11779200,-0.8238465904123152
11782800,-0.8218947384175105
11786400,-0.8199428864227056
11790000,-0.8179910344279009
11793600,-0.816039182433096
11797200,-0.8140873304382912
11800800,-0.8121354784434864
11804400,-0.8101836264486816
11808000,-0.8082317744538767
11811600,-0.806279922459072
11815200,-0.8043280704642671
11818800,-0.8023762184694624
11822400,-0.8004243664746575
11826000,-0.7984725144798527
11829600,-0.7965206624850479
11833200,-0.7945688104902431
11836800,-0.7926169584954382
11840400,-0.7906651065006335
11844000,-0.7887132545058286
11847600,-0.7867614025110239
11851200,-0.784809550516219
11854800,-0.7828576985214142
11858400,-0.7809058465266094
11862000,-0.7789539945318046
11865600,-0.7770021425369997
11869200,-0.775050290542195
11872800,-0.7730984385473901
11876400,-0.7711465865525853
11880000,-0.7691947345577805
11883600,-0.7672428825629757
11887200,-0.7652910305681709
11890800,-0.7633391785733661
11894400,-0.7613873265785612
11898000,-0.7594354745837565
11901600,-0.7574836225889516
11905200,-0.7555317705941469
11908800,-0.753579918599342
11912400,-0.7516280666045372
11916000,-0.7496762146097324
11919600,-0.7477243626149276
11923200,-0.7457725106201227
11926800,-0.743820658625318
11930400,-0.7418688066305131
11934000,-0.7399169546357083
11937600,-0.7379651026409035
11941200,-0.7360132506460987
11944800,-0.7340613986512938
11948400,-0.7321095466564891
11952000,-0.7301576946616842
11955600,-0.7282058426668795
11959200,-0.7262539906720746
11962800,-0.7243021386772698
11966400,-0.722350286682465
11970000,-0.7203984346876602
11973600,-0.7184465826928554
11977200,-0.7164947306980506
11980800,-0.7145428787032457
11984400,-0.712591026708441
11988000,-0.7106391747136361
11991600,-0.7086873227188313
11995200,-0.7067354707240265
11998800,-0.7047836187292217
12002400,-0.7028317667344168
12006000,-0.7008799147396121
12009600,-0.6989280627448072
12013200,-0.6969762107500024
12016800,-0.6950243587551976
12020400,-0.6930725067603928
12024000,-0.691120654765588
12027600,-0.6891688027707832
12031200,-0.6872169507759784
12034800,-0.6852650987811736
12038400,-0.6833132467863687
12042000,-0.681361394791564
12045600,-0.6794095427967591
12049200,-0.6774576908019543
12052800,-0.6755058388071495
12056400,-0.6735539868123447
12060000,-0.6716021348175398
12063600,-0.6696502828227351
12067200,-0.6676984308279302
12070800,-0.6657465788331254
12074400,-0.6637947268383206
12078000,-0.6618428748435158
12081600,-0.659891022848711
12085200,-0.6579391708539062
12088800,-0.6559873188591014
12092400,-0.6540354668642966
12096000,-0.6520836148694917
12099600,-0.650131762874687
12103200,-0.6481799108798821
12106800,-0.6462280588850773
12110400,-0.6442762068902725
12114000,-0.6423243548954677
12117600,-0.6403725029006628
12121200,-0.6384206509058581
12124800,-0.6364687989110532
12128400,-0.6345169469162484
12132000,-0.6325650949214436
12135600,-0.6306132429266388
12139200,-0.6286613909318339
12142800,-0.6267095389370292
12146400,-0.6247576869422243
12150000,-0.6228058349474196
12153600,-0.6208539829526147
12157200,-0.61890213095781
12160800,-0.6169502789630051
12164400,-0.6149984269682003
12168000,-0.6130465749733955
12171600,-0.6110947229785907
12175200,-0.6091428709837858
12178800,-0.6071910189889811
12182400,-0.6052391669941762
12186000,-0.6032873149993714
12189600,-0.6013354630045666
12193200,-0.5993836110097618
12196800,-0.5974317590149569
12200400,-0.5954799070201522
12204000,-0.600892229947413
12207600,-0.6063045528746738
12211200,-0.6117168758019347
12214800,-0.6171291987291955
12218400,-0.6225415216564563
12222000,-0.6279538445837171
12225600,-0.633366167510978
12229200,-0.6387784904382388
12232800,-0.6441908133654995
12236400,-0.6496031362927603
12240000,-0.6550154592200212
12243600,-0.660427782147282
12247200,-0.6658401050745428
12250800,-0.6712524280018036
12254400,-0.6766647509290644
12258000,-0.6820770738563253
12261600,-0.6874893967835861
12265200,-0.6929017197108469
12268800,-0.6983140426381077
12272400,-0.7037263655653685
12276000,-0.7091386884926294
12279600,-0.7145510114198902
12283200,-0.719963334347151
12286800,-0.7253756572744119
12290400,-0.7307879802016727
12294000,-0.7362003031289335
12297600,-0.7416126260561943
12301200,-0.7470249489834551
12304800,-0.752437271910716
12308400,-0.7578495948379768
12312000,-0.7632619177652376
12315600,-0.7686742406924983
12319200,-0.7740865636197591
12322800,-0.77949888654702
12326400,-0.7849112094742808
12330000,-0.7903235324015416
12333600,-0.7957358553288025
12337200,-0.8011481782560632
12340800,-0.8065605011833241
12344400,-0.8119728241105849
12348000,-0.8173851470378457
12351600,-0.8227974699651066
12355200,-0.8282097928923674
12358800,-0.8336221158196282
12362400,-0.839034438746889
12366000,-0.8444467616741498
12369600,-0.8498590846014107
12373200,-0.8552714075286715
12376800,-0.8513116024038818
12380400,-0.8473517972790922
12384000,-0.8433919921543025
12387600,-0.8394321870295128
12391200,-0.8354723819047232
12394800,-0.8315125767799335
12398400,-0.8275527716551438
12402000,-0.8235929665303542
12405600,-0.8196331614055645
12409200,-0.8156733562807749
12412800,-0.8117135511559852
12416400,-0.8077537460311955
12420000,-0.8037939409064059
12423600,-0.7998341357816162
12427200,-0.7958743306568266
12430800,-0.7919145255320369
12434400,-0.7879547204072472
12438000,-0.7839949152824576
12441600,-0.7800351101576679
12445200,-0.7760753050328782
12448800,-0.7721154999080886
12452400,-0.7681556947832989
12456000,-0.7641958896585093
12459600,-0.7602360845337196
12463200,-0.7562762794089299
12466800,-0.7523164742841403
12470400,-0.7483566691593506
12474000,-0.7443968640345611
12477600,-0.7404370589097713
12481200,-0.7364772537849817
12484800,-0.732517448660192
12488400,-0.7285576435354024
12492000,-0.7245978384106126
12495600,-0.7206380332858231
12499200,-0.7166782281610333
12502800,-0.7127184230362438
12506400,-0.708758617911454
12510000,-0.7047988127866645
12513600,-0.7008390076618747
12517200,-0.6968792025370851
12520800,-0.6929193974122955
12524400,-0.6889595922875058
12528000,-0.6849997871627161
12531600,-0.6810399820379265
12535200,-0.6770801769131368
12538800,-0.6731203717883472
12542400,-0.6691605666635575
12546000,-0.6652007615387678
12549600,-0.6612409564139782
12553200,-0.6572811512891885
12556800,-0.6533213461643989
12560400,-0.6493615410396092
12564000,-0.6454017359148195
12567600,-0.6414419307900299
12571200,-0.6374821256652402
12574800,-0.6335223205404505
12578400,-0.6295625154156609
12582000,-0.6256027102908712
12585600,-0.6216429051660816
12589200,-0.6176831000412919
12592800,-0.6137232949165022
12596400,-0.6097634897917126
12600000,-0.6058036846669229
12603600,-0.6018438795421333
12607200,-0.5978840744173436
12610800,-0.5939242692925539
12614400,-0.5899644641677643
12618000,-0.5860046590429746
12621600,-0.582044853918185
